{"learner":{"attributes":{"scikit_learn":"{\"_estimator_type\": \"regressor\"}"},"feature_names":[],"feature_types":[],"gradient_booster":{"model":{"cats":{"enc":[],"feature_segments":[],"sorted_idx":[]},"gbtree_model_param":{"num_parallel_tree":"1","num_trees":"100"},"iteration_indptr":[0,1,2,3,4,5,6,7,8,9,10,11,12,13,14,15,16,17,18,19,20,21,22,23,24,25,26,27,28,29,30,31,32,33,34,35,36,37,38,39,40,41,42,43,44,45,46,47,48,49,50,51,52,53,54,55,56,57,58,59,60,61,62,63,64,65,66,67,68,69,70,71,72,73,74,75,76,77,78,79,80,81,82,83,84,85,86,87,88,89,90,91,92,93,94,95,96,97,98,99,100],"tree_info":[0,0,0,0,0,0,0,0,0,0,0,0,0,0,0,0,0,0,0,0,0,0,0,0,0,0,0,0,0,0,0,0,0,0,0,0,0,0,0,0,0,0,0,0,0,0,0,0,0,0,0,0,0,0,0,0,0,0,0,0,0,0,0,0,0,0,0,0,0,0,0,0,0,0,0,0,0,0,0,0,0,0,0,0,0,0,0,0,0,0,0,0,0,0,0,0,0,0,0,0],"trees":[{"base_weights":[-3.0829987E-8,1.0121429E-1,-1.1246035E-1,-2.3191968E-1,6.324107E-1,3.9741066E-1,-3.4074834E-1,1.1654762E-1,-4.833929E-2,-2.2839291E-2,6.821428E-2,-2.2307543E-1,-7.8508936E-2,-5.915306E-1,1.0446399E-2,-8.839286E-3,-6.606548E-2,-8.253249E-3,5.1660713E-2],"categories":[],"categories_nodes":[],"categories_segments":[],"categories_sizes":[],"default_left":[0,0,0,0,0,0,0,0,0,0,0,0,0,0,0,0,0,0,0],"id":0,"left_children":[1,-1,3,5,7,9,11,-1,-1,-1,-1,13,-1,15,17,-1,-1,-1,-1],"loss_changes":[3.4147775E0,0E0,2.5491772E0,1.779157E0,2.942568E0,8.685422E-1,9.2289066E-1,0E0,0E0,0E0,0E0,1.5549417E0,0E0,1.850555E-1,6.07384E-1,0E0,0E0,0E0,0E0],"parents":[2147483647,0,0,2,2,3,3,4,4,5,5,6,6,11,11,13,13,14,14],"right_children":[2,-1,4,6,8,10,12,-1,-1,-1,-1,14,-1,16,18,-1,-1,-1,-1],"split_conditions":[-1.3396502E0,1.0121429E-1,1.4839478E0,-9.6024233E-1,1.1677458E0,-3.2261747E-1,1.080378E0,1.1654762E-1,-4.833929E-2,-2.2839291E-2,6.821428E-2,-7.938349E-1,-7.8508936E-2,-1.1418037E0,1.055821E0,-8.839286E-3,-6.606548E-2,-8.253249E-3,5.1660713E-2],"split_indices":[0,0,0,1,2,0,0,0,0,0,0,0,0,0,0,0,0,0,0],"split_type":[0,0,0,0,0,0,0,0,0,0,0,0,0,0,0,0,0,0,0],"sum_hessian":[2.8E1,2E0,2.6E1,2.3E1,3E0,3E0,2E1,2E0,1E0,1E0,2E0,1.7E1,3E0,6E0,1.1E1,1E0,5E0,1E1,1E0],"tree_param":{"num_deleted":"0","num_feature":"4","num_nodes":"19","size_leaf_vector":"1"}},{"base_weights":[3.6134536E-3,9.446667E-2,-1.0108185E-1,-2.114207E-1,5.862217E-1,3.6901334E-1,-3.119119E-1,1.0877778E-1,-4.5922324E-2,-2.1697326E-2,6.3666664E-2,-2.0251776E-1,-7.2620764E-2,-5.430783E-1,1.3019025E-2,-8.397323E-3,-6.056003E-2,4.07645E-2,-1.0667066E-2],"categories":[],"categories_nodes":[],"categories_segments":[],"categories_sizes":[],"default_left":[0,0,0,0,0,0,0,0,0,0,0,0,0,0,0,0,0,0,0],"id":1,"left_children":[1,-1,3,5,7,9,11,-1,-1,-1,-1,13,-1,15,17,-1,-1,-1,-1],"loss_changes":[2.9526808E0,0E0,2.1715188E0,1.5149843E0,2.59693E0,7.655044E-1,8.046818E-1,0E0,0E0,0E0,0E0,1.3283302E0,0E0,1.5007496E-1,6.102757E-1,0E0,0E0,0E0,0E0],"parents":[2147483647,0,0,2,2,3,3,4,4,5,5,6,6,11,11,13,13,14,14],"right_children":[2,-1,4,6,8,10,12,-1,-1,-1,-1,14,-1,16,18,-1,-1,-1,-1],"split_conditions":[-1.3396502E0,9.446667E-2,1.4839478E0,-9.6024233E-1,1.1677458E0,-3.2261747E-1,1.080378E0,1.0877778E-1,-4.5922324E-2,-2.1697326E-2,6.3666664E-2,-7.938349E-1,-7.2620764E-2,-1.1418037E0,-3.6339146E-1,-8.397323E-3,-6.056003E-2,4.07645E-2,-1.0667066E-2],"split_indices":[0,0,0,1,2,0,0,0,0,0,0,0,0,0,0,0,0,0,0],"split_type":[0,0,0,0,0,0,0,0,0,0,0,0,0,0,0,0,0,0,0],"sum_hessian":[2.8E1,2E0,2.6E1,2.3E1,3E0,3E0,2E1,2E0,1E0,1E0,2E0,1.7E1,3E0,6E0,1.1E1,1E0,5E0,2E0,9E0],"tree_param":{"num_deleted":"0","num_feature":"4","num_nodes":"19","size_leaf_vector":"1"}},{"base_weights":[6.2800627E-3,8.816889E-2,-9.1220185E-2,-4.0877545E-1,1.1962265E-1,-5.475906E-1,-2.8951287E-2,-4.0600604E-1,3.1258577E-1,1.6067267E-3,-6.3040845E-2,-3.6934194E-1,4.9611032E-2,-7.977456E-3,-4.6762027E-2,4.8581862E-1,-4.2679653E-2,-4.850802E-2,-6.893271E-3,2.5535855E-1,1.01525925E-1,-2.0612461E-2,3.3880953E-2],"categories":[],"categories_nodes":[],"categories_segments":[],"categories_sizes":[],"default_left":[0,0,0,0,0,0,0,0,0,0,0,0,0,0,0,0,0,0,0,0,0,0,0],"id":2,"left_children":[1,-1,3,5,7,9,11,13,15,-1,-1,17,-1,-1,-1,19,-1,-1,-1,21,-1,-1,-1],"loss_changes":[2.5556524E0,0E0,1.8566636E0,5.641253E-1,1.8511701E0,3.8357663E-1,8.981386E-1,6.319833E-2,1.8724545E0,0E0,0E0,7.086861E-2,0E0,0E0,0E0,1.0829089E0,0E0,0E0,0E0,4.1643798E-1,0E0,0E0,0E0],"parents":[2147483647,0,0,2,2,3,3,4,4,5,5,6,6,7,7,8,8,11,11,15,15,19,19],"right_children":[2,-1,4,6,8,10,12,14,16,-1,-1,18,-1,-1,-1,20,-1,-1,-1,22,-1,-1,-1],"split_conditions":[-1.3396502E0,8.816889E-2,3.606092E-2,1.0346242E0,-7.938349E-1,-6.779499E-1,6.149192E-2,-1.1418037E0,1.1677458E0,1.6067267E-3,-6.3040845E-2,-1.1195633E0,4.9611032E-2,-7.977456E-3,-4.6762027E-2,1.055821E0,-4.2679653E-2,-4.850802E-2,-6.893271E-3,-1.5060077E0,1.01525925E-1,-2.0612461E-2,3.3880953E-2],"split_indices":[0,0,3,1,0,1,0,0,2,0,0,0,0,0,0,0,0,0,0,1,0,0,0],"split_type":[0,0,0,0,0,0,0,0,0,0,0,0,0,0,0,0,0,0,0,0,0,0,0],"sum_hessian":[2.8E1,2E0,2.6E1,1E1,1.6E1,7E0,3E0,4E0,1.2E1,1E0,6E0,2E0,1E0,1E0,3E0,1E1,2E0,1E0,1E0,8E0,2E0,1E0,7E0],"tree_param":{"num_deleted":"0","num_feature":"4","num_nodes":"23","size_leaf_vector":"1"}},{"base_weights":[6.9734333E-3,8.229097E-2,-8.3944425E-2,-1.7830753E-1,5.032204E-1,3.3081695E-1,-2.667928E-1,9.4757535E-2,-4.1492227E-2,-1.9581838E-2,5.7163484E-2,-1.7248906E-1,-6.2446143E-2,-4.615055E-1,1.0477941E-2,-7.5785816E-3,-5.1316112E-2,-7.42613E-3,4.7130477E-2],"categories":[],"categories_nodes":[],"categories_segments":[],"categories_sizes":[],"default_left":[0,0,0,0,0,0,0,0,0,0,0,0,0,0,0,0,0,0,0],"id":3,"left_children":[1,-1,3,5,7,9,11,-1,-1,-1,-1,13,-1,15,17,-1,-1,-1,-1],"loss_changes":[2.2203908E0,0E0,1.5857089E0,1.1694598E0,2.025095E0,6.1922956E-1,6.006063E-1,0E0,0E0,0E0,0E0,9.566841E-1,0E0,1.00581884E-1,5.036011E-1,0E0,0E0,0E0,0E0],"parents":[2147483647,0,0,2,2,3,3,4,4,5,5,6,6,11,11,13,13,14,14],"right_children":[2,-1,4,6,8,10,12,-1,-1,-1,-1,14,-1,16,18,-1,-1,-1,-1],"split_conditions":[-1.3396502E0,8.229097E-2,1.4839478E0,-9.6024233E-1,1.1677458E0,-3.2261747E-1,1.080378E0,9.4757535E-2,-4.1492227E-2,-1.9581838E-2,5.7163484E-2,-7.938349E-1,-6.2446143E-2,-1.1418037E0,1.055821E0,-7.5785816E-3,-5.1316112E-2,-7.42613E-3,4.7130477E-2],"split_indices":[0,0,0,1,2,0,0,0,0,0,0,0,0,0,0,0,0,0,0],"split_type":[0,0,0,0,0,0,0,0,0,0,0,0,0,0,0,0,0,0,0],"sum_hessian":[2.8E1,2E0,2.6E1,2.3E1,3E0,3E0,2E1,2E0,1E0,1E0,2E0,1.7E1,3E0,6E0,1.1E1,1E0,5E0,1E1,1E0],"tree_param":{"num_deleted":"0","num_feature":"4","num_nodes":"19","size_leaf_vector":"1"}},{"base_weights":[9.431315E-3,7.68049E-2,-7.520885E-2,-3.492324E-1,1.0652457E-1,-4.678942E-1,-2.4600774E-2,-3.4404793E-1,2.716275E-1,1.8976986E-3,-5.401582E-1,-3.3129406E-1,4.4773955E-2,-7.199651E-3,-3.9406165E-2,4.252063E-1,-3.820373E-2,-2.344006E-2,-6.1558115E-1,-4.351681E-2,-6.1773E-3,2.2489537E-1,8.8440366E-2,-6.844342E-2,-1.7008454E-2,-1.8602747E-2,2.9951418E-2],"categories":[],"categories_nodes":[],"categories_segments":[],"categories_sizes":[],"default_left":[0,0,0,0,0,0,0,0,0,0,0,0,0,0,0,0,0,0,0,0,0,0,0,0,0,0,0],"id":4,"left_children":[1,-1,3,5,7,9,11,13,15,-1,17,19,-1,-1,-1,21,-1,-1,23,-1,-1,25,-1,-1,-1,-1,-1],"loss_changes":[1.9198402E0,0E0,1.3817813E0,4.122244E-1,1.3580972E0,2.9171658E-1,7.2778785E-1,3.9660394E-2,1.4675026E0,0E0,1.7135382E-2,5.710706E-2,0E0,0E0,0E0,8.1290627E-1,0E0,0E0,3.6957264E-2,0E0,0E0,3.3168092E-1,0E0,0E0,0E0,0E0,0E0],"parents":[2147483647,0,0,2,2,3,3,4,4,5,5,6,6,7,7,8,8,10,10,11,11,15,15,18,18,21,21],"right_children":[2,-1,4,6,8,10,12,14,16,-1,18,20,-1,-1,-1,22,-1,-1,24,-1,-1,26,-1,-1,-1,-1,-1],"split_conditions":[-1.3396502E0,7.68049E-2,3.606092E-2,1.0346242E0,-7.938349E-1,-6.779499E-1,6.149192E-2,-1.1418037E0,1.1677458E0,1.8976986E-3,7.678217E-2,-1.1195633E0,4.4773955E-2,-7.199651E-3,-3.9406165E-2,1.055821E0,-3.820373E-2,-2.344006E-2,1.1860197E0,-4.351681E-2,-6.1773E-3,-1.5060077E0,8.8440366E-2,-6.844342E-2,-1.7008454E-2,-1.8602747E-2,2.9951418E-2],"split_indices":[0,0,3,1,0,1,0,0,2,0,0,0,0,0,0,0,0,0,0,0,0,1,0,0,0,0,0],"split_type":[0,0,0,0,0,0,0,0,0,0,0,0,0,0,0,0,0,0,0,0,0,0,0,0,0,0,0],"sum_hessian":[2.8E1,2E0,2.6E1,1E1,1.6E1,7E0,3E0,4E0,1.2E1,1E0,6E0,2E0,1E0,1E0,3E0,1E1,2E0,2E0,4E0,1E0,1E0,8E0,2E0,3E0,1E0,1E0,7E0],"tree_param":{"num_deleted":"0","num_feature":"4","num_nodes":"27","size_leaf_vector":"1"}},{"base_weights":[7.7940286E-3,7.168458E-2,-7.127816E-2,-3.2448322E-1,9.675324E-2,-4.3447906E-1,-2.3370743E-2,-3.189643E-1,2.4920204E-1,1.8028141E-3,-5.016984E-1,-3.1472936E-1,4.2535257E-2,-6.839669E-3,-3.6450702E-1,3.9175737E-1,-3.5656817E-2,-2.1877391E-2,-5.711134E-1,-4.1340973E-2,-5.868435E-3,-4.1511737E-2,-1.0633803E-2,2.0366676E-1,8.2544334E-2,-6.331016E-2,-1.6158033E-2,-1.7672611E-2,2.7330665E-2],"categories":[],"categories_nodes":[],"categories_segments":[],"categories_sizes":[],"default_left":[0,0,0,0,0,0,0,0,0,0,0,0,0,0,0,0,0,0,0,0,0,0,0,0,0,0,0,0,0],"id":5,"left_children":[1,-1,3,5,7,9,11,13,15,-1,17,19,-1,-1,21,23,-1,-1,25,-1,-1,-1,-1,27,-1,-1,-1,-1,-1],"loss_changes":[1.6770175E0,0E0,1.1801476E0,3.541782E-1,1.1568724E0,2.5238252E-1,6.5682864E-1,3.2126606E-2,1.2623131E0,0E0,1.2529612E-2,5.1539153E-2,0E0,0E0,8.121312E-3,7.2917914E-1,0E0,0E0,2.4634361E-2,0E0,0E0,0E0,0E0,2.86715E-1,0E0,0E0,0E0,0E0,0E0],"parents":[2147483647,0,0,2,2,3,3,4,4,5,5,6,6,7,7,8,8,10,10,11,11,14,14,15,15,18,18,23,23],"right_children":[2,-1,4,6,8,10,12,14,16,-1,18,20,-1,-1,22,24,-1,-1,26,-1,-1,-1,-1,28,-1,-1,-1,-1,-1],"split_conditions":[-1.3396502E0,7.168458E-2,3.606092E-2,1.0346242E0,-7.938349E-1,-6.779499E-1,6.149192E-2,-1.1418037E0,1.1677458E0,1.8028141E-3,7.678217E-2,-1.1195633E0,4.2535257E-2,-6.839669E-3,-9.402506E-1,1.055821E0,-3.5656817E-2,-2.1877391E-2,1.1860197E0,-4.1340973E-2,-5.868435E-3,-4.1511737E-2,-1.0633803E-2,-1.5060077E0,8.2544334E-2,-6.331016E-2,-1.6158033E-2,-1.7672611E-2,2.7330665E-2],"split_indices":[0,0,3,1,0,1,0,0,2,0,0,0,0,0,0,0,0,0,0,0,0,0,0,1,0,0,0,0,0],"split_type":[0,0,0,0,0,0,0,0,0,0,0,0,0,0,0,0,0,0,0,0,0,0,0,0,0,0,0,0,0],"sum_hessian":[2.8E1,2E0,2.6E1,1E1,1.6E1,7E0,3E0,4E0,1.2E1,1E0,6E0,2E0,1E0,1E0,3E0,1E1,2E0,2E0,4E0,1E0,1E0,2E0,1E0,8E0,2E0,3E0,1E0,1E0,7E0],"tree_param":{"num_deleted":"0","num_feature":"4","num_nodes":"29","size_leaf_vector":"1"}},{"base_weights":[5.808709E-3,6.690561E-2,-6.810058E-2,1.2481531E-1,-2.5615215E-1,-7.5637735E-2,4.0469232E-1,-5.84728E-2,-6.624899E-2,7.773411E-2,-2.8678609E-2,6.2852913E-1,-3.572459E-2,-3.1147954E-1,8.3346896E-2,-1.6788978E-2,1.6043684E-1,8.46062E-2,-1.2080115E-2,-6.497687E-3,-3.7198815E-2,-1.06201686E-1,1.8040666E-1,-5.5929585E-3,3.233243E-2,-5.801201E-4,-1.5350133E-2,2.7840892E-2,-1.0580117E-2],"categories":[],"categories_nodes":[],"categories_segments":[],"categories_sizes":[],"default_left":[0,0,0,0,0,0,0,0,0,0,0,0,0,0,0,0,0,0,0,0,0,0,0,0,0,0,0,0,0],"id":6,"left_children":[1,-1,3,5,7,9,11,-1,13,15,-1,17,-1,19,21,-1,23,-1,-1,-1,-1,25,27,-1,-1,-1,-1,-1,-1],"loss_changes":[1.4671474E0,0E0,1.0114813E0,8.160408E-1,8.348287E-1,3.1375098E-1,1.2478383E0,0E0,3.9281565E-1,1.4881831E-1,0E0,9.172251E-1,0E0,3.5491496E-2,1.4794229E-1,0E0,1.9430031E-1,0E0,0E0,0E0,0E0,1.3356227E-2,1.6970105E-1,0E0,0E0,0E0,0E0,0E0,0E0],"parents":[2147483647,0,0,2,2,3,3,4,4,5,5,6,6,8,8,9,9,11,11,13,13,14,14,16,16,21,21,22,22],"right_children":[2,-1,4,6,8,10,12,-1,14,16,-1,18,-1,20,22,-1,24,-1,-1,-1,-1,26,28,-1,-1,-1,-1,-1,-1],"split_conditions":[-1.3396502E0,6.690561E-2,1.626542E-1,7.678217E-2,6.519611E-1,-3.2894248E-1,1.1677458E0,-5.84728E-2,-8.5453254E-1,-1.5060077E0,-2.8678609E-2,1.5506196E0,-3.572459E-2,-1.1418037E0,7.0841956E-1,-1.6788978E-2,-1.4226762E0,8.46062E-2,-1.2080115E-2,-6.497687E-3,-3.7198815E-2,6.983206E-2,1.5741163E0,-5.5929585E-3,3.233243E-2,-5.801201E-4,-1.5350133E-2,2.7840892E-2,-1.0580117E-2],"split_indices":[0,0,1,0,1,2,2,0,0,1,0,3,0,0,1,0,2,0,0,0,0,0,1,0,0,0,0,0,0],"split_type":[0,0,0,0,0,0,0,0,0,0,0,0,0,0,0,0,0,0,0,0,0,0,0,0,0,0,0,0,0],"sum_hessian":[2.8E1,2E0,2.6E1,1.3E1,1.3E1,8E0,5E0,4E0,9E0,5E0,3E0,4E0,1E0,3E0,6E0,1E0,4E0,3E0,1E0,1E0,2E0,2E0,4E0,2E0,2E0,1E0,1E0,3E0,1E0],"tree_param":{"num_deleted":"0","num_feature":"4","num_nodes":"29","size_leaf_vector":"1"}},{"base_weights":[4.6809562E-3,6.2445242E-2,-6.435591E-2,1.13624744E-1,-2.3773971E-1,-7.015485E-2,3.7035668E-1,-5.379498E-2,-6.386069E-2,7.1619116E-2,-2.6527708E-2,5.801815E-1,-3.393836E-2,-2.912557E-1,7.520228E-2,-1.594953E-2,1.4974105E-1,7.826074E-2,-1.1476112E-2,-6.1728E-3,-3.4718897E-2,-1.0089163E-1,1.6581817E-1,-5.2200956E-3,3.0176938E-2,-5.511165E-4,-1.4582628E-2,1.2190462E-3,3.901645E-2],"categories":[],"categories_nodes":[],"categories_segments":[],"categories_sizes":[],"default_left":[0,0,0,0,0,0,0,0,0,0,0,0,0,0,0,0,0,0,0,0,0,0,0,0,0,0,0,0,0],"id":7,"left_children":[1,-1,3,5,7,9,11,-1,13,15,-1,17,-1,19,21,-1,23,-1,-1,-1,-1,25,27,-1,-1,-1,-1,-1,-1],"loss_changes":[1.2810127E0,0E0,8.602052E-1,6.865316E-1,6.9644946E-1,2.6796818E-1,1.0904306E0,0E0,3.3812535E-1,1.3221362E-1,0E0,7.931849E-1,0E0,2.992165E-2,1.2842801E-1,0E0,1.6925718E-1,0E0,0E0,0E0,0E0,1.2053991E-2,1.6757277E-1,0E0,0E0,0E0,0E0,0E0,0E0],"parents":[2147483647,0,0,2,2,3,3,4,4,5,5,6,6,8,8,9,9,11,11,13,13,14,14,16,16,21,21,22,22],"right_children":[2,-1,4,6,8,10,12,-1,14,16,-1,18,-1,20,22,-1,24,-1,-1,-1,-1,26,28,-1,-1,-1,-1,-1,-1],"split_conditions":[-1.3396502E0,6.2445242E-2,1.626542E-1,7.678217E-2,6.519611E-1,-3.2894248E-1,1.1677458E0,-5.379498E-2,-8.5453254E-1,-1.5060077E0,-2.6527708E-2,1.5506196E0,-3.393836E-2,-1.1418037E0,7.0841956E-1,-1.594953E-2,-1.4226762E0,7.826074E-2,-1.1476112E-2,-6.1728E-3,-3.4718897E-2,6.983206E-2,5.1324904E-1,-5.2200956E-3,3.0176938E-2,-5.511165E-4,-1.4582628E-2,1.2190462E-3,3.901645E-2],"split_indices":[0,0,1,0,1,2,2,0,0,1,0,3,0,0,1,0,2,0,0,0,0,0,0,0,0,0,0,0,0],"split_type":[0,0,0,0,0,0,0,0,0,0,0,0,0,0,0,0,0,0,0,0,0,0,0,0,0,0,0,0,0],"sum_hessian":[2.8E1,2E0,2.6E1,1.3E1,1.3E1,8E0,5E0,4E0,9E0,5E0,3E0,4E0,1E0,3E0,6E0,1E0,4E0,3E0,1E0,1E0,2E0,2E0,4E0,2E0,2E0,1E0,1E0,3E0,1E0],"tree_param":{"num_deleted":"0","num_feature":"4","num_nodes":"29","size_leaf_vector":"1"}},{"base_weights":[4.495154E-3,5.8282234E-2,-5.9929907E-2,1.03356995E-1,-2.189361E-1,3.3943048E-1,-6.5509446E-2,-4.9491387E-2,-5.9053622E-2,5.5459775E-2,-6.0602706E-2,-2.0216736E-1,5.1387694E-2,-2.7235308E-1,7.1268015E-2,2.2533238E-3,-1.134373E-2,1.0107585E-1,-3.200944E-2,-5.8641615E-3,-3.2404304E-2,-9.584705E-2,1.5728346E-1,-9.561461E-3,2.4722839E-2,-5.2356126E-4,-1.3853497E-2,1.1276186E-3,3.7065625E-2],"categories":[],"categories_nodes":[],"categories_segments":[],"categories_sizes":[],"default_left":[0,0,0,0,0,0,0,0,0,0,0,0,0,0,0,0,0,0,0,0,0,0,0,0,0,0,0,0,0],"id":8,"left_children":[1,-1,3,5,7,9,11,-1,13,-1,15,17,-1,19,21,-1,-1,23,-1,-1,-1,25,27,-1,-1,-1,-1,-1,-1],"loss_changes":[1.1154326E0,0E0,7.2364664E-1,5.8034444E-1,5.885095E-1,5.500544E-1,8.164887E-1,0E0,2.973854E-1,0E0,1.573347E-2,3.1843844E-1,0E0,2.5184542E-2,1.1569647E-1,0E0,0E0,1.0987907E-1,0E0,0E0,0E0,1.0878725E-2,1.515903E-1,0E0,0E0,0E0,0E0,0E0,0E0],"parents":[2147483647,0,0,2,2,3,3,4,4,5,5,6,6,8,8,10,10,11,11,13,13,14,14,17,17,21,21,22,22],"right_children":[2,-1,4,6,8,10,12,-1,14,-1,16,18,-1,20,22,-1,-1,24,-1,-1,-1,26,28,-1,-1,-1,-1,-1,-1],"split_conditions":[-1.3396502E0,5.8282234E-2,1.626542E-1,5.409138E-1,6.519611E-1,-9.6024233E-1,2.066367E0,-4.9491387E-2,-8.5453254E-1,5.5459775E-2,-1.3569262E-2,-8.470269E-1,5.1387694E-2,-1.1418037E0,7.0841956E-1,2.2533238E-3,-1.134373E-2,-7.938349E-1,-3.200944E-2,-5.8641615E-3,-3.2404304E-2,6.983206E-2,5.1324904E-1,-9.561461E-3,2.4722839E-2,-5.2356126E-4,-1.3853497E-2,1.1276186E-3,3.7065625E-2],"split_indices":[0,0,1,3,1,1,0,0,0,0,0,2,0,0,1,0,0,0,0,0,0,0,0,0,0,0,0,0,0],"split_type":[0,0,0,0,0,0,0,0,0,0,0,0,0,0,0,0,0,0,0,0,0,0,0,0,0,0,0,0,0],"sum_hessian":[2.8E1,2E0,2.6E1,1.3E1,1.3E1,5E0,8E0,4E0,9E0,3E0,2E0,7E0,1E0,3E0,6E0,1E0,1E0,2E0,5E0,1E0,2E0,2E0,4E0,1E0,1E0,1E0,1E0,3E0,1E0],"tree_param":{"num_deleted":"0","num_feature":"4","num_nodes":"29","size_leaf_vector":"1"}},{"base_weights":[6.6403993E-3,5.4396756E-2,-5.330856E-2,-2.3980854E-1,7.05037E-2,-1.23920605E-1,-4.116323E-2,-2.4128807E-1,1.8500024E-1,-2.4223025E-1,3.5212345E-2,-5.570954E-3,-2.7375532E-2,2.9222777E-1,-2.6983414E-2,2.1406591E-3,-2.897375E-1,1.4842726E-1,6.2622E-2,-3.1934746E-2,-7.084388E-3,-1.3551581E-2,2.0085962E-2],"categories":[],"categories_nodes":[],"categories_segments":[],"categories_sizes":[],"default_left":[0,0,0,0,0,0,0,0,0,0,0,0,0,0,0,0,0,0,0,0,0,0,0],"id":9,"left_children":[1,-1,3,5,7,9,-1,11,13,15,-1,-1,-1,17,-1,-1,19,21,-1,-1,-1,-1,-1],"loss_changes":[9.6315205E-1,0E0,6.4036393E-1,1.6802555E-1,6.515227E-1,5.3585976E-1,0E0,1.4875352E-2,7.128731E-1,9.387487E-2,0E0,0E0,0E0,4.3536276E-1,0E0,0E0,1.6264796E-2,1.6120991E-1,0E0,0E0,0E0,0E0,0E0],"parents":[2147483647,0,0,2,2,3,3,4,4,5,5,7,7,8,8,9,9,13,13,16,16,17,17],"right_children":[2,-1,4,6,8,10,-1,12,14,16,-1,-1,-1,18,-1,-1,20,22,-1,-1,-1,-1,-1],"split_conditions":[-1.3396502E0,5.4396756E-2,3.606092E-2,1.080378E0,-7.938349E-1,4.9193537E-1,-4.116323E-2,-1.1418037E0,1.1677458E0,-6.779499E-1,3.5212345E-2,-5.570954E-3,-2.7375532E-2,1.055821E0,-2.6983414E-2,2.1406591E-3,7.6479125E-1,-1.5060077E0,6.2622E-2,-3.1934746E-2,-7.084388E-3,-1.3551581E-2,2.0085962E-2],"split_indices":[0,0,3,0,0,0,0,0,2,1,0,0,0,0,0,0,2,1,0,0,0,0,0],"split_type":[0,0,0,0,0,0,0,0,0,0,0,0,0,0,0,0,0,0,0,0,0,0,0],"sum_hessian":[2.8E1,2E0,2.6E1,1E1,1.6E1,7E0,3E0,4E0,1.2E1,6E0,1E0,1E0,3E0,1E1,2E0,1E0,5E0,8E0,2E0,4E0,1E0,1E0,7E0],"tree_param":{"num_deleted":"0","num_feature":"4","num_nodes":"23","size_leaf_vector":"1"}},{"base_weights":[6.693382E-3,5.07703E-2,-4.9222257E-2,9.497735E-2,-1.8990599E-1,3.0104902E-1,-5.29568E-2,-4.2699337E-2,-5.2371692E-2,4.8730442E-1,-4.76412E-2,-3.0320225E-2,2.0787999E-1,4.361996E-2,-2.9089222E-2,1.3747591E-2,5.580886E-2,2.0336271E-3,-9.179807E-3,3.1414002E-2,4.56872E-2,-4.572497E-2,3.3451725E-2,2.24824E-2,-1.0799734E-2,-1.1446125E-2,1.8334633E-2],"categories":[],"categories_nodes":[],"categories_segments":[],"categories_sizes":[],"default_left":[0,0,0,0,0,0,0,0,0,0,0,0,0,0,0,0,0,0,0,0,0,0,0,0,0,0,0],"id":10,"left_children":[1,-1,3,5,7,9,11,-1,13,15,17,-1,19,21,-1,-1,-1,-1,-1,23,-1,25,-1,-1,-1,-1,-1],"loss_changes":[8.3740413E-1,0E0,5.657733E-1,4.4273314E-1,4.3414468E-1,4.1288835E-1,6.504886E-1,0E0,2.416485E-1,2.2325575E-2,1.0871846E-2,0E0,2.053409E-1,2.2321737E-1,0E0,0E0,0E0,0E0,0E0,1.3213459E-1,0E0,1.312046E-1,0E0,0E0,0E0,0E0,0E0],"parents":[2147483647,0,0,2,2,3,3,4,4,5,5,6,6,8,8,9,9,10,10,12,12,13,13,19,19,21,21],"right_children":[2,-1,4,6,8,10,12,-1,14,16,18,-1,20,22,-1,-1,-1,-1,-1,24,-1,26,-1,-1,-1,-1,-1],"split_conditions":[-1.3396502E0,5.07703E-2,1.626542E-1,5.409138E-1,6.519611E-1,-9.6024233E-1,-7.218621E-1,-4.2699337E-2,1.5741163E0,-2.0353892E-1,-1.3569262E-2,-3.0320225E-2,6.2418606E-2,1.1914533E0,-2.9089222E-2,1.3747591E-2,5.580886E-2,2.0336271E-3,-9.179807E-3,-5.963988E-1,4.56872E-2,1.0457667E0,3.3451725E-2,2.24824E-2,-1.0799734E-2,-1.1446125E-2,1.8334633E-2],"split_indices":[0,0,1,3,1,1,1,0,1,0,0,0,0,1,0,0,0,0,0,1,0,3,0,0,0,0,0],"split_type":[0,0,0,0,0,0,0,0,0,0,0,0,0,0,0,0,0,0,0,0,0,0,0,0,0,0,0],"sum_hessian":[2.8E1,2E0,2.6E1,1.3E1,1.3E1,5E0,8E0,4E0,9E0,3E0,2E0,4E0,4E0,7E0,2E0,1E0,2E0,1E0,1E0,3E0,1E0,6E0,1E0,1E0,2E0,5E0,1E0],"tree_param":{"num_deleted":"0","num_feature":"4","num_nodes":"27","size_leaf_vector":"1"}},{"base_weights":[9.775148E-3,4.7385614E-2,-4.2151447E-2,9.1869615E-2,-1.731617E-1,1.6671586E-1,-2.3813857E-2,-3.928339E-2,-4.600942E-2,-3.178905E-2,4.5098054E-1,4.4300497E-2,-2.714994E-2,-9.7354E-2,2.1358281E-2,6.076763E-2,-8.790118E-3,-4.0168405E-2,3.177914E-2,-2.0172624E-2,3.1356723E-3,-1.0492281E-2,1.7417902E-2],"categories":[],"categories_nodes":[],"categories_segments":[],"categories_sizes":[],"default_left":[0,0,0,0,0,0,0,0,0,0,0,0,0,0,0,0,0,0,0,0,0,0,0],"id":11,"left_children":[1,-1,3,5,7,9,-1,-1,11,13,15,17,-1,19,-1,-1,-1,21,-1,-1,-1,-1,-1],"loss_changes":[7.1881986E-1,0E0,4.8997787E-1,3.8549972E-1,3.7297142E-1,6.9147134E-1,0E0,0E0,2.1566735E-1,1.4949548E-1,4.7561777E-1,1.9757698E-1,0E0,1.0036225E-1,0E0,0E0,0E0,1.1543494E-1,0E0,0E0,0E0,0E0,0E0],"parents":[2147483647,0,0,2,2,3,3,4,4,5,5,8,8,9,9,10,10,11,11,13,13,17,17],"right_children":[2,-1,4,6,8,10,-1,-1,12,14,16,18,-1,20,-1,-1,-1,22,-1,-1,-1,-1,-1],"split_conditions":[-1.3396502E0,4.7385614E-2,1.626542E-1,1.1677458E0,6.519611E-1,7.678217E-2,-2.3813857E-2,-3.928339E-2,1.5741163E0,1.5506196E0,1.5506196E0,1.1914533E0,-2.714994E-2,-3.2261747E-1,2.1358281E-2,6.076763E-2,-8.790118E-3,1.0457667E0,3.177914E-2,-2.0172624E-2,3.1356723E-3,-1.0492281E-2,1.7417902E-2],"split_indices":[0,0,1,2,1,0,0,0,1,3,3,1,0,0,0,0,0,3,0,0,0,0,0],"split_type":[0,0,0,0,0,0,0,0,0,0,0,0,0,0,0,0,0,0,0,0,0,0,0],"sum_hessian":[2.8E1,2E0,2.6E1,1.3E1,1.3E1,1.1E1,2E0,4E0,9E0,7E0,4E0,7E0,2E0,6E0,1E0,3E0,1E0,6E0,1E0,3E0,3E0,5E0,1E0],"tree_param":{"num_deleted":"0","num_feature":"4","num_nodes":"23","size_leaf_vector":"1"}},{"base_weights":[1.0595628E-2,4.422657E-2,-3.7760142E-2,-1.9211704E-1,6.4339034E-2,-9.701897E-2,-3.342839E-1,-1.8667126E-1,1.5593229E-1,-1.9713649E-1,3.0190183E-2,-3.7900697E-2,-1.0005737E-2,-4.1954815E-3,-2.1236166E-1,2.4490072E-1,-2.2226268E-1,1.7751635E-3,-2.3590977E-1,-2.4204226E-2,-6.1659934E-3,1.2928034E-1,5.1012825E-2,-6.754309E-3,-2.6585093E-2,-2.6055876E-2,-5.633247E-3,-1.0349363E-2,1.7131379E-2],"categories":[],"categories_nodes":[],"categories_segments":[],"categories_sizes":[],"default_left":[0,0,0,0,0,0,0,0,0,0,0,0,0,0,0,0,0,0,0,0,0,0,0,0,0,0,0,0,0],"id":12,"left_children":[1,-1,3,5,7,9,11,13,15,17,-1,-1,-1,-1,19,21,23,-1,25,-1,-1,27,-1,-1,-1,-1,-1,-1,-1],"loss_changes":[6.220384E-1,0E0,4.3787283E-1,1.1628583E-1,4.1995254E-1,3.7902755E-1,3.978908E-3,9.679541E-3,4.9184865E-1,6.2511235E-2,0E0,0E0,0E0,0E0,2.9673576E-3,2.713732E-1,2.275452E-3,0E0,1.1880457E-2,0E0,0E0,1.0578853E-1,0E0,0E0,0E0,0E0,0E0,0E0,0E0],"parents":[2147483647,0,0,2,2,3,3,4,4,5,5,6,6,7,7,8,8,9,9,14,14,15,15,16,16,18,18,21,21],"right_children":[2,-1,4,6,8,10,12,14,16,18,-1,-1,-1,-1,20,22,24,-1,26,-1,-1,28,-1,-1,-1,-1,-1,-1,-1],"split_conditions":[-1.3396502E0,4.422657E-2,3.606092E-2,1.080378E0,-7.938349E-1,4.9193537E-1,1.1860197E0,-1.1418037E0,1.1677458E0,-6.779499E-1,3.0190183E-2,-3.7900697E-2,-1.0005737E-2,-4.1954815E-3,-9.402506E-1,1.055821E0,6.2418606E-2,1.7751635E-3,7.6479125E-1,-2.4204226E-2,-6.1659934E-3,-1.5060077E0,5.1012825E-2,-6.754309E-3,-2.6585093E-2,-2.6055876E-2,-5.633247E-3,-1.0349363E-2,1.7131379E-2],"split_indices":[0,0,3,0,0,0,0,0,2,1,0,0,0,0,0,0,0,0,2,0,0,1,0,0,0,0,0,0,0],"split_type":[0,0,0,0,0,0,0,0,0,0,0,0,0,0,0,0,0,0,0,0,0,0,0,0,0,0,0,0,0],"sum_hessian":[2.8E1,2E0,2.6E1,1E1,1.6E1,7E0,3E0,4E0,1.2E1,6E0,1E0,2E0,1E0,1E0,3E0,1E1,2E0,1E0,5E0,2E0,1E0,8E0,2E0,1E0,1E0,4E0,1E0,1E0,7E0],"tree_param":{"num_deleted":"0","num_feature":"4","num_nodes":"29","size_leaf_vector":"1"}},{"base_weights":[9.070084E-3,4.1278124E-1,-3.612264E-2,4.9208593E-2,1.2708592E-2,7.984506E-2,-1.4951016E-1,1.4593996E-1,-2.1114956E-1,-3.361949E-2,-4.121678E-2,-2.4227768E-2,3.8902035E-1,-6.416595E-3,-2.5255838E-2,4.2388245E-2,-2.504246E-2,-8.321403E-2,1.9433802E-2,5.323113E-2,-9.207177E-3,-3.3501063E-2,2.8680671E-2,-1.7641688E-2,3.0792325E-3,-9.138605E-3,1.569044E-2],"categories":[],"categories_nodes":[],"categories_segments":[],"categories_sizes":[],"default_left":[0,0,0,0,0,0,0,0,0,0,0,0,0,0,0,0,0,0,0,0,0,0,0,0,0,0,0],"id":13,"left_children":[1,3,5,-1,-1,7,9,11,13,-1,15,17,19,-1,-1,21,-1,23,-1,-1,-1,25,-1,-1,-1,-1,-1],"loss_changes":[5.4401016E-1,5.433738E-3,3.669685E-1,0E0,0E0,3.0008078E-1,2.691772E-1,5.057984E-1,2.0535886E-3,0E0,1.8552329E-1,1.1931068E-1,3.9369166E-1,0E0,0E0,1.5799831E-1,0E0,7.98123E-2,0E0,0E0,0E0,9.149018E-2,0E0,0E0,0E0,0E0,0E0],"parents":[2147483647,0,0,1,1,2,2,5,5,6,6,7,7,8,8,10,10,11,11,12,12,15,15,17,17,21,21],"right_children":[2,4,6,-1,-1,8,10,12,14,-1,16,18,20,-1,-1,22,-1,24,-1,-1,-1,26,-1,-1,-1,-1,-1],"split_conditions":[-1.3396502E0,-1.3827409E0,1.626542E-1,4.9208593E-2,1.2708592E-2,1.1677458E0,6.519611E-1,7.678217E-2,6.2418606E-2,-3.361949E-2,1.5741163E0,1.5506196E0,1.5506196E0,-6.416595E-3,-2.5255838E-2,1.1914533E0,-2.504246E-2,-3.2261747E-1,1.9433802E-2,5.323113E-2,-9.207177E-3,1.0457667E0,2.8680671E-2,-1.7641688E-2,3.0792325E-3,-9.138605E-3,1.569044E-2],"split_indices":[0,0,1,0,0,2,1,0,0,0,1,3,3,0,0,1,0,0,0,0,0,3,0,0,0,0,0],"split_type":[0,0,0,0,0,0,0,0,0,0,0,0,0,0,0,0,0,0,0,0,0,0,0,0,0,0,0],"sum_hessian":[2.8E1,2E0,2.6E1,1E0,1E0,1.3E1,1.3E1,1.1E1,2E0,4E0,9E0,7E0,4E0,1E0,1E0,7E0,2E0,6E0,1E0,3E0,1E0,6E0,1E0,3E0,3E0,5E0,1E0],"tree_param":{"num_deleted":"0","num_feature":"4","num_nodes":"27","size_leaf_vector":"1"}},{"base_weights":[1.0084102E-2,3.9214215E-1,-3.2740276E-2,4.674816E-2,1.2073159E-2,-1.6646466E-1,5.571316E-2,-8.202003E-2,-2.9373774E-1,-1.59309E-1,1.3412836E-1,-1.7158471E-1,2.7246637E-2,-3.3132683E-2,-9.0485215E-3,-3.5287798E-3,-1.8149234E-1,2.1322228E-1,-2.005921E-1,1.5324474E-3,-2.0529032E-1,-2.0881904E-2,-4.975611E-3,1.13727584E-1,4.4063225E-2,-6.095767E-3,-2.3993049E-2,-2.2676976E-2,-4.894656E-3,-8.949811E-3,1.5031806E-2],"categories":[],"categories_nodes":[],"categories_segments":[],"categories_sizes":[],"default_left":[0,0,0,0,0,0,0,0,0,0,0,0,0,0,0,0,0,0,0,0,0,0,0,0,0,0,0,0,0,0,0],"id":14,"left_children":[1,3,5,-1,-1,7,9,11,13,15,17,19,-1,-1,-1,-1,21,23,25,-1,27,-1,-1,29,-1,-1,-1,-1,-1,-1,-1],"loss_changes":[4.8731938E-1,4.904002E-3,3.2864055E-1,0E0,0E0,9.413046E-2,3.0800495E-1,3.0074674E-1,5.80132E-4,7.3515773E-3,3.8693726E-1,4.724519E-2,0E0,0E0,0E0,0E0,4.009649E-3,1.9877487E-1,1.8533766E-3,0E0,9.049445E-3,0E0,0E0,8.037829E-2,0E0,0E0,0E0,0E0,0E0,0E0,0E0],"parents":[2147483647,0,0,1,1,2,2,5,5,6,6,7,7,8,8,9,9,10,10,11,11,16,16,17,17,18,18,20,20,23,23],"right_children":[2,4,6,-1,-1,8,10,12,14,16,18,20,-1,-1,-1,-1,22,24,26,-1,28,-1,-1,30,-1,-1,-1,-1,-1,-1,-1],"split_conditions":[-1.3396502E0,-1.3827409E0,3.606092E-2,4.674816E-2,1.2073159E-2,1.080378E0,-7.938349E-1,4.9193537E-1,1.1860197E0,-1.1418037E0,1.1677458E0,-6.779499E-1,2.7246637E-2,-3.3132683E-2,-9.0485215E-3,-3.5287798E-3,-9.402506E-1,1.055821E0,6.2418606E-2,1.5324474E-3,7.6479125E-1,-2.0881904E-2,-4.975611E-3,-1.5060077E0,4.4063225E-2,-6.095767E-3,-2.3993049E-2,-2.2676976E-2,-4.894656E-3,-8.949811E-3,1.5031806E-2],"split_indices":[0,0,3,0,0,0,0,0,0,0,2,1,0,0,0,0,0,0,0,0,2,0,0,1,0,0,0,0,0,0,0],"split_type":[0,0,0,0,0,0,0,0,0,0,0,0,0,0,0,0,0,0,0,0,0,0,0,0,0,0,0,0,0,0,0],"sum_hessian":[2.8E1,2E0,2.6E1,1E0,1E0,1E1,1.6E1,7E0,3E0,4E0,1.2E1,6E0,1E0,2E0,1E0,1E0,3E0,1E1,2E0,1E0,5E0,2E0,1E0,8E0,2E0,1E0,1E0,4E0,1E0,1E0,7E0],"tree_param":{"num_deleted":"0","num_feature":"4","num_nodes":"31","size_leaf_vector":"1"}},{"base_weights":[9.369394E-3,3.72535E-1,-3.1329352E-2,4.4410754E-2,1.14694955E-2,-5.7879783E-2,3.294909E-2,1.3405387E-1,-1.09961785E-1,3.575594E-2,-2.0863812E-2,-6.719781E-2,-2.7490927E-2,-1.0160274E-1,2.5884306E-2,-2.3418948E-2,-4.2792256E-3],"categories":[],"categories_nodes":[],"categories_segments":[],"categories_sizes":[],"default_left":[0,0,0,0,0,0,0,0,0,0,0,0,0,0,0,0,0],"id":15,"left_children":[1,3,5,-1,-1,7,-1,9,11,-1,-1,13,-1,15,-1,-1,-1],"loss_changes":[4.4030243E-1,4.425943E-3,2.7772903E-1,0E0,0E0,2.7464432E-1,0E0,5.341618E-1,1.2965673E-1,0E0,0E0,2.2821265E-1,0E0,1.22535825E-1,0E0,0E0,0E0],"parents":[2147483647,0,0,1,1,2,2,5,5,7,7,8,8,11,11,13,13],"right_children":[2,4,6,-1,-1,8,-1,10,12,-1,-1,14,-1,16,-1,-1,-1],"split_conditions":[-1.3396502E0,-1.3827409E0,2.066367E0,4.4410754E-2,1.14694955E-2,-9.6024233E-1,3.294909E-2,5.409138E-1,1.080378E0,3.575594E-2,-2.0863812E-2,1.055821E0,-2.7490927E-2,-9.402506E-1,2.5884306E-2,-2.3418948E-2,-4.2792256E-3],"split_indices":[0,0,0,0,0,1,0,3,0,0,0,0,0,0,0,0,0],"split_type":[0,0,0,0,0,0,0,0,0,0,0,0,0,0,0,0,0],"sum_hessian":[2.8E1,2E0,2.6E1,1E0,1E0,2.5E1,1E0,5E0,2E1,3E0,2E0,1.7E1,3E0,1.6E1,1E0,4E0,1.2E1],"tree_param":{"num_deleted":"0","num_feature":"4","num_nodes":"17","size_leaf_vector":"1"}},{"base_weights":[1.0998563E-2,3.539082E-1,-2.7509864E-2,4.219022E-2,1.0896015E-2,-1.4432456E-1,4.969434E-2,-4.4941004E-2,-2.1965402E-1,-1.3434814E-1,1.1665727E-1,-1.5228955E-1,2.4590088E-2,-2.4584098E-1,-4.4359625E-3,-2.1813929E-3,-1.5702821E-1,1.8755354E-1,-1.8218146E-1,1.6697884E-3,-1.9871089E-1,-6.3809515E-3,-2.7539647E-1,-1.7928516E-2,-4.51287E-3,9.97804E-2,3.883551E-2,-5.577016E-3,-2.1750202E-2,-5.5070044E-3,-2.282345E-2,-3.1905167E-2,-7.2215437E-3,1.3546407E-2,-9.284449E-3],"categories":[],"categories_nodes":[],"categories_segments":[],"categories_sizes":[],"default_left":[0,0,0,0,0,0,0,0,0,0,0,0,0,0,0,0,0,0,0,0,0,0,0,0,0,0,0,0,0,0,0,0,0,0,0],"id":16,"left_children":[1,3,5,-1,-1,7,9,11,13,15,17,19,-1,21,-1,-1,23,25,27,-1,29,-1,31,-1,-1,33,-1,-1,-1,-1,-1,-1,-1,-1,-1],"loss_changes":[3.9267838E-1,3.994465E-3,2.5067395E-1,0E0,0E0,7.248013E-2,2.251811E-1,2.2477685E-1,1.6637146E-2,9.336017E-3,3.0959392E-1,4.2541146E-2,0E0,9.327233E-3,0E0,0E0,1.871258E-3,1.5512457E-1,1.2646392E-3,0E0,4.394293E-3,0E0,1.2439162E-2,0E0,0E0,7.443917E-2,0E0,0E0,0E0,0E0,0E0,0E0,0E0,0E0,0E0],"parents":[2147483647,0,0,1,1,2,2,5,5,6,6,7,7,8,8,9,9,10,10,11,11,13,13,16,16,17,17,18,18,20,20,22,22,25,25],"right_children":[2,4,6,-1,-1,8,10,12,14,16,18,20,-1,22,-1,-1,24,26,28,-1,30,-1,32,-1,-1,34,-1,-1,-1,-1,-1,-1,-1,-1,-1],"split_conditions":[-1.3396502E0,-1.3827409E0,3.606092E-2,4.219022E-2,1.0896015E-2,-9.868274E-2,-7.938349E-1,1.0346242E0,9.9505097E-1,-1.1418037E0,1.1677458E0,-6.779499E-1,2.4590088E-2,8.737623E-2,-4.4359625E-3,-2.1813929E-3,-9.402506E-1,1.055821E0,6.2418606E-2,1.6697884E-3,-8.5453254E-1,-6.3809515E-3,1.1860197E0,-1.7928516E-2,-4.51287E-3,5.869202E-1,3.883551E-2,-5.577016E-3,-2.1750202E-2,-5.5070044E-3,-2.282345E-2,-3.1905167E-2,-7.2215437E-3,1.3546407E-2,-9.284449E-3],"split_indices":[0,0,3,0,0,2,0,1,2,0,2,1,0,1,0,0,0,0,0,0,0,0,0,0,0,0,0,0,0,0,0,0,0,0,0],"split_type":[0,0,0,0,0,0,0,0,0,0,0,0,0,0,0,0,0,0,0,0,0,0,0,0,0,0,0,0,0,0,0,0,0,0,0],"sum_hessian":[2.8E1,2E0,2.6E1,1E0,1E0,1E1,1.6E1,5E0,5E0,4E0,1.2E1,4E0,1E0,4E0,1E0,1E0,3E0,1E1,2E0,1E0,3E0,1E0,3E0,2E0,1E0,8E0,2E0,1E0,1E0,1E0,2E0,2E0,1E0,7E0,1E0],"tree_param":{"num_deleted":"0","num_feature":"4","num_nodes":"35","size_leaf_vector":"1"}},{"base_weights":[9.630418E-3,3.3621278E-1,-2.7013196E-2,4.0080704E-2,1.0351217E-2,-5.0636675E-2,2.9359866E-2,1.1350977E-1,-9.5124386E-2,3.1426036E-1,-1.919943E-2,-5.791101E-2,-2.388035E-1,8.6761955E-3,3.6117252E-2,-8.880058E-2,2.3360586E-2,-2.7266825E-2,-6.860465E-3,-2.014656E-2,-3.863707E-3],"categories":[],"categories_nodes":[],"categories_segments":[],"categories_sizes":[],"default_left":[0,0,0,0,0,0,0,0,0,0,0,0,0,0,0,0,0,0,0,0,0],"id":17,"left_children":[1,3,5,-1,-1,7,-1,9,11,13,-1,15,17,-1,-1,19,-1,-1,-1,-1,-1],"loss_changes":[3.561298E-1,3.6049485E-3,2.19364E-1,0E0,0E0,2.0066255E-1,0E0,4.283169E-1,9.8453134E-2,1.1353731E-2,0E0,1.8283129E-1,4.3486655E-3,0E0,0E0,8.82944E-2,0E0,0E0,0E0,0E0,0E0],"parents":[2147483647,0,0,1,1,2,2,5,5,7,7,8,8,9,9,11,11,12,12,15,15],"right_children":[2,4,6,-1,-1,8,-1,10,12,14,-1,16,18,-1,-1,20,-1,-1,-1,-1,-1],"split_conditions":[-1.3396502E0,-1.3827409E0,2.066367E0,4.0080704E-2,1.0351217E-2,-9.6024233E-1,2.9359866E-2,5.409138E-1,1.080378E0,-2.0353892E-1,-1.919943E-2,1.055821E0,1.1860197E0,8.6761955E-3,3.6117252E-2,-9.402506E-1,2.3360586E-2,-2.7266825E-2,-6.860465E-3,-2.014656E-2,-3.863707E-3],"split_indices":[0,0,0,0,0,1,0,3,0,0,0,0,0,0,0,0,0,0,0,0,0],"split_type":[0,0,0,0,0,0,0,0,0,0,0,0,0,0,0,0,0,0,0,0,0],"sum_hessian":[2.8E1,2E0,2.6E1,1E0,1E0,2.5E1,1E0,5E0,2E1,3E0,2E0,1.7E1,3E0,1E0,2E0,1.6E1,1E0,2E0,1E0,4E0,1.2E1],"tree_param":{"num_deleted":"0","num_feature":"4","num_nodes":"21","size_leaf_vector":"1"}},{"base_weights":[1.1102151E-2,3.1940213E-1,-2.3564594E-2,3.8076665E-2,9.833658E-3,-1.2757532E-1,4.512262E-2,-3.8209084E-2,-1.9567901E-1,-1.12977184E-1,1.0245927E-1,-1.3462114E-1,2.2192562E-2,-2.187309E-1,-4.0209773E-3,-1.0649919E-3,-1.3589652E-1,1.6619314E-1,-1.653847E-1,1.7794848E-3,-1.7717385E-1,-5.8687213E-3,-2.4407002E-1,-1.5390175E-2,-4.0940405E-3,8.95786E-2,3.40639E-2,-5.1049828E-3,-1.9702721E-2,-5.03847E-3,-2.02642E-2,-2.819771E-2,-6.51744E-3,1.23243425E-2,-8.986997E-3],"categories":[],"categories_nodes":[],"categories_segments":[],"categories_sizes":[],"default_left":[0,0,0,0,0,0,0,0,0,0,0,0,0,0,0,0,0,0,0,0,0,0,0,0,0,0,0,0,0,0,0,0,0,0,0],"id":18,"left_children":[1,3,5,-1,-1,7,9,11,13,15,17,19,-1,21,-1,-1,23,25,27,-1,29,-1,31,-1,-1,33,-1,-1,-1,-1,-1,-1,-1,-1,-1],"loss_changes":[3.1747156E-1,3.2534301E-3,1.9865012E-1,0E0,0E0,5.947116E-2,1.6567907E-1,1.8035664E-1,1.2708053E-2,1.0279082E-2,2.4940534E-1,3.558135E-2,0E0,5.953029E-3,0E0,0E0,5.380288E-4,1.1650202E-1,7.953197E-4,0E0,2.7062893E-3,0E0,8.747965E-3,0E0,0E0,6.544582E-2,0E0,0E0,0E0,0E0,0E0,0E0,0E0,0E0,0E0],"parents":[2147483647,0,0,1,1,2,2,5,5,6,6,7,7,8,8,9,9,10,10,11,11,13,13,16,16,17,17,18,18,20,20,22,22,25,25],"right_children":[2,4,6,-1,-1,8,10,12,14,16,18,20,-1,22,-1,-1,24,26,28,-1,30,-1,32,-1,-1,34,-1,-1,-1,-1,-1,-1,-1,-1,-1],"split_conditions":[-1.3396502E0,-1.3827409E0,3.606092E-2,3.8076665E-2,9.833658E-3,-9.868274E-2,-7.938349E-1,1.0346242E0,9.9505097E-1,-1.1418037E0,1.1677458E0,-6.779499E-1,2.2192562E-2,8.737623E-2,-4.0209773E-3,-1.0649919E-3,-9.402506E-1,1.055821E0,6.2418606E-2,1.7794848E-3,-8.5453254E-1,-5.8687213E-3,1.1860197E0,-1.5390175E-2,-4.0940405E-3,9.028877E-1,3.40639E-2,-5.1049828E-3,-1.9702721E-2,-5.03847E-3,-2.02642E-2,-2.819771E-2,-6.51744E-3,1.23243425E-2,-8.986997E-3],"split_indices":[0,0,3,0,0,2,0,1,2,0,2,1,0,1,0,0,0,0,0,0,0,0,0,0,0,1,0,0,0,0,0,0,0,0,0],"split_type":[0,0,0,0,0,0,0,0,0,0,0,0,0,0,0,0,0,0,0,0,0,0,0,0,0,0,0,0,0,0,0,0,0,0,0],"sum_hessian":[2.8E1,2E0,2.6E1,1E0,1E0,1E1,1.6E1,5E0,5E0,4E0,1.2E1,4E0,1E0,4E0,1E0,1E0,3E0,1E1,2E0,1E0,3E0,1E0,3E0,2E0,1E0,8E0,2E0,1E0,1E0,1E0,2E0,2E0,1E0,7E0,1E0],"tree_param":{"num_deleted":"0","num_feature":"4","num_nodes":"35","size_leaf_vector":"1"}},{"base_weights":[9.785713E-3,3.0343208E-1,-2.3204094E-2,3.6172833E-2,9.341979E-3,-4.42417E-2,2.6188685E-2,9.786873E-2,-8.273793E-2,2.793545E-1,-1.7673522E-2,-4.992533E-2,-2.0971015E-1,7.6261642E-3,3.2163158E-2,-7.7665575E-2,2.1082938E-2,-2.383364E-2,-6.19157E-3,-1.7333973E-2,-3.4893546E-3],"categories":[],"categories_nodes":[],"categories_segments":[],"categories_sizes":[],"default_left":[0,0,0,0,0,0,0,0,0,0,0,0,0,0,0,0,0,0,0,0,0],"id":19,"left_children":[1,3,5,-1,-1,7,-1,9,11,13,-1,15,17,-1,-1,19,-1,-1,-1,-1,-1],"loss_changes":[2.879736E-1,2.9361844E-3,1.7352235E-1,0E0,0E0,1.5033609E-1,0E0,3.4839207E-1,7.702221E-2,9.816527E-3,0E0,1.4657536E-1,2.1664351E-3,0E0,0E0,6.351858E-2,0E0,0E0,0E0,0E0,0E0],"parents":[2147483647,0,0,1,1,2,2,5,5,7,7,8,8,9,9,11,11,12,12,15,15],"right_children":[2,4,6,-1,-1,8,-1,10,12,14,-1,16,18,-1,-1,20,-1,-1,-1,-1,-1],"split_conditions":[-1.3396502E0,-1.3827409E0,2.066367E0,3.6172833E-2,9.341979E-3,-9.6024233E-1,2.6188685E-2,5.409138E-1,1.080378E0,-2.0353892E-1,-1.7673522E-2,1.055821E0,1.1860197E0,7.6261642E-3,3.2163158E-2,-9.402506E-1,2.1082938E-2,-2.383364E-2,-6.19157E-3,-1.7333973E-2,-3.4893546E-3],"split_indices":[0,0,0,0,0,1,0,3,0,0,0,0,0,0,0,0,0,0,0,0,0],"split_type":[0,0,0,0,0,0,0,0,0,0,0,0,0,0,0,0,0,0,0,0,0],"sum_hessian":[2.8E1,2E0,2.6E1,1E0,1E0,2.5E1,1E0,5E0,2E1,3E0,2E0,1.7E1,3E0,1E0,2E0,1.6E1,1E0,2E0,1E0,4E0,1.2E1],"tree_param":{"num_deleted":"0","num_feature":"4","num_nodes":"21","size_leaf_vector":"1"}},{"base_weights":[1.1015908E-2,2.8826046E-1,-2.019704E-2,3.436419E-2,8.874881E-3,-1.1285221E-1,4.0944368E-2,-3.2406773E-2,-1.7448895E-1,7.6415844E-2,-1.5006115E-1,-1.190033E-1,2.0028794E-2,-1.9480488E-1,-3.6454618E-3,-6.412739E-3,2.4335556E-1,-4.675263E-3,-1.7833909E-2,1.8649817E-3,-1.5807903E-1,-5.400819E-3,-2.1650201E-1,-4.1051216E-2,1.6998602E-2,3.495384E-2,-9.068787E-3,-4.6120766E-3,-1.8002488E-2,-2.494561E-2,-5.881989E-3,-8.455744E-3,8.864912E-3],"categories":[],"categories_nodes":[],"categories_segments":[],"categories_sizes":[],"default_left":[0,0,0,0,0,0,0,0,0,0,0,0,0,0,0,0,0,0,0,0,0,0,0,0,0,0,0,0,0,0,0,0,0],"id":20,"left_children":[1,3,5,-1,-1,7,9,11,13,15,17,19,-1,21,-1,23,25,-1,-1,-1,27,-1,29,31,-1,-1,-1,-1,-1,-1,-1,-1,-1],"loss_changes":[2.56777E-1,2.6499182E-3,1.5757748E-1,0E0,0E0,4.88877E-2,1.2664627E-1,1.4473826E-1,9.7242445E-3,2.0897129E-1,4.2624027E-4,2.9842623E-2,0E0,3.5815537E-3,0E0,7.4190155E-2,2.0904729E-1,0E0,0E0,0E0,1.5251935E-3,0E0,6.1120987E-3,6.392366E-2,0E0,0E0,0E0,0E0,0E0,0E0,0E0,0E0,0E0],"parents":[2147483647,0,0,1,1,2,2,5,5,6,6,7,7,8,8,9,9,10,10,11,11,13,13,15,15,16,16,20,20,22,22,23,23],"right_children":[2,4,6,-1,-1,8,10,12,14,16,18,20,-1,22,-1,24,26,-1,-1,-1,28,-1,30,32,-1,-1,-1,-1,-1,-1,-1,-1,-1],"split_conditions":[-1.3396502E0,-1.3827409E0,3.606092E-2,3.436419E-2,8.874881E-3,-9.868274E-2,1.5131354E0,1.0346242E0,9.9505097E-1,5.1324904E-1,6.2418606E-2,-6.779499E-1,2.0028794E-2,8.737623E-2,-3.6454618E-3,1.5506196E0,1.5506196E0,-4.675263E-3,-1.7833909E-2,1.8649817E-3,-8.5453254E-1,-5.400819E-3,1.1860197E0,4.769666E-1,1.6998602E-2,3.495384E-2,-9.068787E-3,-4.6120766E-3,-1.8002488E-2,-2.494561E-2,-5.881989E-3,-8.455744E-3,8.864912E-3],"split_indices":[0,0,3,0,0,2,2,1,2,0,0,1,0,1,0,3,3,0,0,0,0,0,0,2,0,0,0,0,0,0,0,0,0],"split_type":[0,0,0,0,0,0,0,0,0,0,0,0,0,0,0,0,0,0,0,0,0,0,0,0,0,0,0,0,0,0,0,0,0],"sum_hessian":[2.8E1,2E0,2.6E1,1E0,1E0,1E1,1.6E1,5E0,5E0,1.4E1,2E0,4E0,1E0,4E0,1E0,1E1,4E0,1E0,1E0,1E0,3E0,1E0,3E0,9E0,1E0,3E0,1E0,1E0,2E0,2E0,1E0,7E0,2E0],"tree_param":{"num_deleted":"0","num_feature":"4","num_nodes":"33","size_leaf_vector":"1"}},{"base_weights":[1.0722182E-2,2.7384743E-1,-1.8911073E-2,3.2645978E-2,8.431137E-3,-1.05257414E-1,3.8072504E-2,-2.928623E-2,-1.636857E-1,7.166046E-2,-1.425581E-1,-1.1125289E-1,1.9027352E-2,-1.8257007E-1,-3.4631907E-3,-9.139057E-2,1.3925998E-1,-4.4414997E-3,-1.6942216E-2,1.7717303E-3,-1.4792475E-1,-5.13078E-3,-2.025587E-1,-5.882859E-4,-1.1129679E-1,1.6906676E-1,-7.940394E-3,-4.381472E-3,-1.680232E-2,-2.3282569E-2,-5.587888E-3,-1.264485E-2,-3.2920837E-3,-6.486237E-3,2.0226581E-2],"categories":[],"categories_nodes":[],"categories_segments":[],"categories_sizes":[],"default_left":[0,0,0,0,0,0,0,0,0,0,0,0,0,0,0,0,0,0,0,0,0,0,0,0,0,0,0,0,0,0,0,0,0,0,0],"id":21,"left_children":[1,3,5,-1,-1,7,9,11,13,15,17,19,-1,21,-1,23,25,-1,-1,-1,27,-1,29,-1,31,33,-1,-1,-1,-1,-1,-1,-1,-1,-1],"loss_changes":[2.3129922E-1,2.391532E-3,1.3685614E-1,0E0,0E0,4.4033796E-2,1.1335498E-1,1.2914795E-1,8.299857E-3,1.7805962E-1,3.8468093E-4,2.6268724E-2,0E0,2.725929E-3,0E0,7.855933E-3,8.511889E-2,0E0,0E0,0E0,1.0079071E-3,0E0,4.7481805E-3,0E0,5.8732554E-4,9.078175E-2,0E0,0E0,0E0,0E0,0E0,0E0,0E0,0E0,0E0],"parents":[2147483647,0,0,1,1,2,2,5,5,6,6,7,7,8,8,9,9,10,10,11,11,13,13,15,15,16,16,20,20,22,22,24,24,25,25],"right_children":[2,4,6,-1,-1,8,10,12,14,16,18,20,-1,22,-1,24,26,-1,-1,-1,28,-1,30,-1,32,34,-1,-1,-1,-1,-1,-1,-1,-1,-1],"split_conditions":[-1.3396502E0,-1.3827409E0,3.606092E-2,3.2645978E-2,8.431137E-3,-9.868274E-2,1.5131354E0,1.0346242E0,9.9505097E-1,-7.938349E-1,6.2418606E-2,-6.779499E-1,1.9027352E-2,8.737623E-2,-3.4631907E-3,-1.1418037E0,9.028877E-1,-4.4414997E-3,-1.6942216E-2,1.7717303E-3,-8.5453254E-1,-5.13078E-3,1.1860197E0,-5.882859E-4,-9.402506E-1,-1.5060077E0,-7.940394E-3,-4.381472E-3,-1.680232E-2,-2.3282569E-2,-5.587888E-3,-1.264485E-2,-3.2920837E-3,-6.486237E-3,2.0226581E-2],"split_indices":[0,0,3,0,0,2,2,1,2,0,0,1,0,1,0,0,1,0,0,0,0,0,0,0,0,1,0,0,0,0,0,0,0,0,0],"split_type":[0,0,0,0,0,0,0,0,0,0,0,0,0,0,0,0,0,0,0,0,0,0,0,0,0,0,0,0,0,0,0,0,0,0,0],"sum_hessian":[2.8E1,2E0,2.6E1,1E0,1E0,1E1,1.6E1,5E0,5E0,1.4E1,2E0,4E0,1E0,4E0,1E0,4E0,1E1,1E0,1E0,1E0,3E0,1E0,3E0,1E0,3E0,9E0,1E0,1E0,2E0,2E0,1E0,2E0,1E0,1E0,8E0],"tree_param":{"num_deleted":"0","num_feature":"4","num_nodes":"35","size_leaf_vector":"1"}},{"base_weights":[8.654079E-3,2.6015505E-1,-1.9610994E-2,3.101368E-2,8.009577E-3,-3.738083E-2,2.2120237E-2,7.969895E-2,-6.905215E-2,2.3083359E-1,-1.4838022E-2,-4.2200916E-2,-1.726197E-1,6.656325E-3,2.6340261E-2,-6.5949194E-2,1.8075991E-2,-1.9476963E-2,-5.308494E-3,-1.4304198E-2,-3.1225104E-3],"categories":[],"categories_nodes":[],"categories_segments":[],"categories_sizes":[],"default_left":[0,0,0,0,0,0,0,0,0,0,0,0,0,0,0,0,0,0,0,0,0],"id":22,"left_children":[1,3,5,-1,-1,7,-1,9,11,13,-1,15,17,-1,-1,19,-1,-1,-1,-1,-1],"loss_changes":[2.1125399E-1,2.1584034E-3,1.2380751E-1,0E0,0E0,1.0191324E-1,0E0,2.4107513E-1,5.111455E-2,3.8675666E-3,0E0,1.07229814E-1,2.5141984E-4,0E0,0E0,4.104211E-2,0E0,0E0,0E0,0E0,0E0],"parents":[2147483647,0,0,1,1,2,2,5,5,7,7,8,8,9,9,11,11,12,12,15,15],"right_children":[2,4,6,-1,-1,8,-1,10,12,14,-1,16,18,-1,-1,20,-1,-1,-1,-1,-1],"split_conditions":[-1.3396502E0,-1.3827409E0,2.066367E0,3.101368E-2,8.009577E-3,-9.6024233E-1,2.2120237E-2,5.409138E-1,1.080378E0,-2.0353892E-1,-1.4838022E-2,1.055821E0,1.1860197E0,6.656325E-3,2.6340261E-2,-9.402506E-1,1.8075991E-2,-1.9476963E-2,-5.308494E-3,-1.4304198E-2,-3.1225104E-3],"split_indices":[0,0,0,0,0,1,0,3,0,0,0,0,0,0,0,0,0,0,0,0,0],"split_type":[0,0,0,0,0,0,0,0,0,0,0,0,0,0,0,0,0,0,0,0,0],"sum_hessian":[2.8E1,2E0,2.6E1,1E0,1E0,2.5E1,1E0,5E0,2E1,3E0,2E0,1.7E1,3E0,1E0,2E0,1.6E1,1E0,2E0,1E0,4E0,1.2E1],"tree_param":{"num_deleted":"0","num_feature":"4","num_nodes":"21","size_leaf_vector":"1"}},{"base_weights":[9.690958E-3,2.4714725E-1,-1.7051999E-2,2.9462993E-2,7.609093E-3,-3.3872634E-2,2.1014227E-2,7.475547E-2,-6.329625E-2,2.1599936E-1,-1.3848822E-2,-3.7944715E-2,-1.615541E-2,6.3235047E-3,2.4584247E-2,-6.0379338E-2,1.7172193E-2,-8.680852E-3,2.0412398E-3],"categories":[],"categories_nodes":[],"categories_segments":[],"categories_sizes":[],"default_left":[0,0,0,0,0,0,0,0,0,0,0,0,0,0,0,0,0,0,0],"id":23,"left_children":[1,3,5,-1,-1,7,-1,9,11,13,-1,15,-1,-1,-1,17,-1,-1,-1],"loss_changes":[1.8837257E-1,1.9479692E-3,1.1029996E-1,0E0,0E0,8.783377E-2,0E0,2.1062958E-1,4.6180606E-2,2.6899725E-3,0E0,9.5036715E-2,0E0,0E0,0E0,3.807137E-2,0E0,0E0,0E0],"parents":[2147483647,0,0,1,1,2,2,5,5,7,7,8,8,9,9,11,11,15,15],"right_children":[2,4,6,-1,-1,8,-1,10,12,14,-1,16,-1,-1,-1,18,-1,-1,-1],"split_conditions":[-1.3396502E0,-1.3827409E0,2.066367E0,2.9462993E-2,7.609093E-3,-9.6024233E-1,2.1014227E-2,5.409138E-1,1.080378E0,-2.0353892E-1,-1.3848822E-2,1.055821E0,-1.615541E-2,6.3235047E-3,2.4584247E-2,7.6479125E-1,1.7172193E-2,-8.680852E-3,2.0412398E-3],"split_indices":[0,0,0,0,0,1,0,3,0,0,0,0,0,0,0,2,0,0,0],"split_type":[0,0,0,0,0,0,0,0,0,0,0,0,0,0,0,0,0,0,0],"sum_hessian":[2.8E1,2E0,2.6E1,1E0,1E0,2.5E1,1E0,5E0,2E1,3E0,2E0,1.7E1,3E0,1E0,2E0,1.6E1,1E0,1.2E1,4E0],"tree_param":{"num_deleted":"0","num_feature":"4","num_nodes":"19","size_leaf_vector":"1"}},{"base_weights":[1.1119181E-2,2.3478985E-1,-1.4144936E-2,2.798984E-2,7.2286366E-3,-3.0045522E-2,1.9963516E-2,7.012305E-2,-5.7234373E-2,2.0212632E-1,-1.2925567E-2,-3.3565097E-2,-1.4943753E-1,6.007326E-3,2.2945292E-2,-5.473197E-2,1.6313588E-2,-1.7101472E-2,-4.2352974E-3,-1.1757271E-2,-1.8750603E-3],"categories":[],"categories_nodes":[],"categories_segments":[],"categories_sizes":[],"default_left":[0,0,0,0,0,0,0,0,0,0,0,0,0,0,0,0,0,0,0,0,0],"id":24,"left_children":[1,3,5,-1,-1,7,-1,9,11,13,-1,15,17,-1,-1,19,-1,-1,-1,-1,-1],"loss_changes":[1.6719551E-1,1.758039E-3,9.7777314E-2,0E0,0E0,7.482362E-2,0E0,1.8403783E-1,4.0814146E-2,1.7433316E-3,0E0,8.387256E-2,1.9993484E-3,0E0,0E0,3.6234062E-2,0E0,0E0,0E0,0E0,0E0],"parents":[2147483647,0,0,1,1,2,2,5,5,7,7,8,8,9,9,11,11,12,12,15,15],"right_children":[2,4,6,-1,-1,8,-1,10,12,14,-1,16,18,-1,-1,20,-1,-1,-1,-1,-1],"split_conditions":[-1.3396502E0,-1.3827409E0,2.066367E0,2.798984E-2,7.2286366E-3,-9.6024233E-1,1.9963516E-2,5.409138E-1,1.080378E0,-2.0353892E-1,-1.2925567E-2,1.055821E0,1.1860197E0,6.007326E-3,2.2945292E-2,-8.5453254E-1,1.6313588E-2,-1.7101472E-2,-4.2352974E-3,-1.1757271E-2,-1.8750603E-3],"split_indices":[0,0,0,0,0,1,0,3,0,0,0,0,0,0,0,0,0,0,0,0,0],"split_type":[0,0,0,0,0,0,0,0,0,0,0,0,0,0,0,0,0,0,0,0,0],"sum_hessian":[2.8E1,2E0,2.6E1,1E0,1E0,2.5E1,1E0,5E0,2E1,3E0,2E0,1.7E1,3E0,1E0,2E0,1.6E1,1E0,2E0,1E0,5E0,1.1E1],"tree_param":{"num_deleted":"0","num_feature":"4","num_nodes":"21","size_leaf_vector":"1"}},{"base_weights":[1.1819435E-2,2.2305036E-1,-1.2088424E-2,2.6590347E-2,6.867206E-3,-8.163613E-2,3.362412E-2,-1.7740076E-2,-1.3192616E-1,6.222212E-2,-1.2057392E-2,-8.327974E-2,1.5497911E-2,-1.4574255E-1,-3.142214E-3,-6.41199E-2,1.1399376E-1,2.3670674E-3,-1.15935005E-1,-1.6206051E-1,-4.0235342E-3,6.421387E-4,-8.336057E-2,1.3911203E-1,-6.8594515E-3,-2.984366E-3,-1.3468424E-2,-4.1903197E-3,-1.8814523E-2,-9.485704E-3,-2.443558E-3,-4.081309E-3,1.636385E-2],"categories":[],"categories_nodes":[],"categories_segments":[],"categories_sizes":[],"default_left":[0,0,0,0,0,0,0,0,0,0,0,0,0,0,0,0,0,0,0,0,0,0,0,0,0,0,0,0,0,0,0,0,0],"id":25,"left_children":[1,3,5,-1,-1,7,9,11,13,15,-1,17,-1,19,-1,21,23,-1,25,27,-1,-1,29,31,-1,-1,-1,-1,-1,-1,-1,-1,-1],"loss_changes":[1.4914863E-1,1.5866309E-3,8.858342E-2,0E0,0E0,3.300631E-2,8.2468204E-2,8.082636E-2,3.7520602E-3,1.0542327E-1,0E0,2.020673E-2,0E0,2.087757E-3,0E0,7.321598E-3,5.9991643E-2,0E0,2.4371147E-3,4.6531856E-3,0E0,0E0,3.9183162E-4,5.080788E-2,0E0,0E0,0E0,0E0,0E0,0E0,0E0,0E0,0E0],"parents":[2147483647,0,0,1,1,2,2,5,5,6,6,7,7,8,8,9,9,11,11,13,13,15,15,16,16,18,18,19,19,22,22,23,23],"right_children":[2,4,6,-1,-1,8,10,12,14,16,-1,18,-1,20,-1,22,24,-1,26,28,-1,-1,30,32,-1,-1,-1,-1,-1,-1,-1,-1,-1],"split_conditions":[-1.3396502E0,-1.3827409E0,3.606092E-2,2.6590347E-2,6.867206E-3,-9.868274E-2,1.5131354E0,1.0346242E0,9.9505097E-1,-7.938349E-1,-1.2057392E-2,-6.779499E-1,1.5497911E-2,1.1860197E0,-3.142214E-3,-1.1418037E0,9.028877E-1,2.3670674E-3,-8.5453254E-1,8.737623E-2,-4.0235342E-3,6.421387E-4,-9.402506E-1,-1.5060077E0,-6.8594515E-3,-2.984366E-3,-1.3468424E-2,-4.1903197E-3,-1.8814523E-2,-9.485704E-3,-2.443558E-3,-4.081309E-3,1.636385E-2],"split_indices":[0,0,3,0,0,2,2,1,2,0,0,1,0,0,0,0,1,0,0,1,0,0,0,1,0,0,0,0,0,0,0,0,0],"split_type":[0,0,0,0,0,0,0,0,0,0,0,0,0,0,0,0,0,0,0,0,0,0,0,0,0,0,0,0,0,0,0,0,0],"sum_hessian":[2.8E1,2E0,2.6E1,1E0,1E0,1E1,1.6E1,5E0,5E0,1.4E1,2E0,4E0,1E0,4E0,1E0,4E0,1E1,1E0,3E0,3E0,1E0,1E0,3E0,9E0,1E0,1E0,2E0,1E0,2E0,2E0,1E0,1E0,8E0],"tree_param":{"num_deleted":"0","num_feature":"4","num_nodes":"33","size_leaf_vector":"1"}},{"base_weights":[1.0181549E-2,2.1189785E-1,-1.2608468E-2,2.526083E-2,6.5238476E-3,-2.7052753E-2,1.8147146E-2,6.028971E-2,-5.0719514E-2,1.7687887E-1,-1.1525908E-2,-3.011691E-2,-1.3075136E-1,4.8887613E-3,2.0324675E-2,-4.9209688E-2,1.4723015E-2,-1.4885277E-2,-3.8223565E-3,-8.156458E-4,-9.437501E-3],"categories":[],"categories_nodes":[],"categories_segments":[],"categories_sizes":[],"default_left":[0,0,0,0,0,0,0,0,0,0,0,0,0,0,0,0,0,0,0,0,0],"id":26,"left_children":[1,3,5,-1,-1,7,-1,9,11,13,-1,15,17,-1,-1,19,-1,-1,-1,-1,-1],"loss_changes":[1.3598813E-1,1.4319271E-3,8.0599636E-2,0E0,0E0,5.6802817E-2,0E0,1.431894E-1,3.0688327E-2,3.5631806E-3,0E0,6.819401E-2,1.0098442E-3,0E0,0E0,3.0751333E-2,0E0,0E0,0E0,0E0,0E0],"parents":[2147483647,0,0,1,1,2,2,5,5,7,7,8,8,9,9,11,11,12,12,15,15],"right_children":[2,4,6,-1,-1,8,-1,10,12,14,-1,16,18,-1,-1,20,-1,-1,-1,-1,-1],"split_conditions":[-1.3396502E0,-1.3827409E0,2.066367E0,2.526083E-2,6.5238476E-3,-9.6024233E-1,1.8147146E-2,5.409138E-1,1.080378E0,-2.0353892E-1,-1.1525908E-2,1.055821E0,1.1860197E0,4.8887613E-3,2.0324675E-2,-1.3569262E-2,1.4723015E-2,-1.4885277E-2,-3.8223565E-3,-8.156458E-4,-9.437501E-3],"split_indices":[0,0,0,0,0,1,0,3,0,0,0,0,0,0,0,0,0,0,0,0,0],"split_type":[0,0,0,0,0,0,0,0,0,0,0,0,0,0,0,0,0,0,0,0,0],"sum_hessian":[2.8E1,2E0,2.6E1,1E0,1E0,2.5E1,1E0,5E0,2E1,3E0,2E0,1.7E1,3E0,1E0,2E0,1.6E1,1E0,2E0,1E0,9E0,7E0],"tree_param":{"num_deleted":"0","num_feature":"4","num_nodes":"21","size_leaf_vector":"1"}},{"base_weights":[1.0866195E-2,2.0130293E-1,-1.0695893E-2,2.3997784E-2,6.197655E-3,-2.4368647E-2,1.7239785E-2,5.654198E-2,-4.6325557E-2,1.6549432E-1,-1.0757514E-1,-2.928107E-2,-1.3883213E-2,4.6443227E-3,1.8969696E-2,-3.300953E-3,-1.2835318E-2,-6.929334E-2,6.8961084E-2,2.9909622E-3,-1.1196549E-2,-1.4290373E-3,1.1415941E-2],"categories":[],"categories_nodes":[],"categories_segments":[],"categories_sizes":[],"default_left":[0,0,0,0,0,0,0,0,0,0,0,0,0,0,0,0,0,0,0,0,0,0,0],"id":27,"left_children":[1,3,5,-1,-1,7,-1,9,11,13,15,17,-1,-1,-1,-1,-1,19,21,-1,-1,-1,-1],"loss_changes":[1.212333E-1,1.2923181E-3,7.179279E-2,0E0,0E0,4.8809566E-2,0E0,1.2508875E-1,2.9046115E-2,2.7152598E-3,4.111007E-4,7.946549E-2,0E0,0E0,0E0,0E0,0E0,6.26137E-2,2.4208337E-2,0E0,0E0,0E0,0E0],"parents":[2147483647,0,0,1,1,2,2,5,5,7,7,8,8,9,9,10,10,11,11,17,17,18,18],"right_children":[2,4,6,-1,-1,8,-1,10,12,14,16,18,-1,-1,-1,-1,-1,20,22,-1,-1,-1,-1],"split_conditions":[-1.3396502E0,-1.3827409E0,2.066367E0,2.3997784E-2,6.197655E-3,-9.6024233E-1,1.7239785E-2,5.409138E-1,1.5741163E0,-2.0353892E-1,-3.2261747E-1,7.0841956E-1,-1.3883213E-2,4.6443227E-3,1.8969696E-2,-3.300953E-3,-1.2835318E-2,-8.470269E-1,-8.5453254E-1,2.9909622E-3,-1.1196549E-2,-1.4290373E-3,1.1415941E-2],"split_indices":[0,0,0,0,0,1,0,3,1,0,0,1,0,0,0,0,0,2,0,0,0,0,0],"split_type":[0,0,0,0,0,0,0,0,0,0,0,0,0,0,0,0,0,0,0,0,0,0,0],"sum_hessian":[2.8E1,2E0,2.6E1,1E0,1E0,2.5E1,1E0,5E0,2E1,3E0,2E0,1.8E1,2E0,1E0,2E0,1E0,1E0,1.3E1,5E0,4E0,9E0,2E0,3E0],"tree_param":{"num_deleted":"0","num_feature":"4","num_nodes":"23","size_leaf_vector":"1"}},{"base_weights":[1.1255802E-2,1.9123776E-1,-9.159076E-3,2.2797896E-2,5.8877706E-3,-6.8731114E-2,2.9926307E-2,-2.1336254E-2,-1.213377E-1,5.3423926E-2,-9.753722E-2,-6.961251E-2,1.3416064E-2,-2.9491067E-3,-1.3692659E-1,-5.5146586E-2,9.791744E-2,-2.4370314E-3,-1.2193552E-2,2.13995E-3,-9.209481E-2,-1.6200865E-2,-3.0840219E-3,7.222653E-4,-7.254456E-3,1.1841007E-1,-5.350447E-3,-1.148625E-2,-3.8628858E-3,-3.1359077E-3,1.3853544E-2],"categories":[],"categories_nodes":[],"categories_segments":[],"categories_sizes":[],"default_left":[0,0,0,0,0,0,0,0,0,0,0,0,0,0,0,0,0,0,0,0,0,0,0,0,0,0,0,0,0,0,0],"id":28,"left_children":[1,3,5,-1,-1,7,9,11,13,15,17,19,-1,-1,21,23,25,-1,-1,-1,27,-1,-1,-1,-1,29,-1,-1,-1,-1,-1],"loss_changes":[1.0830654E-1,1.1663213E-3,6.492356E-2,0E0,0E0,2.483721E-2,5.612734E-2,6.1886914E-2,3.1208172E-3,7.786007E-2,2.3838375E-3,1.4247738E-2,0E0,0E0,5.647078E-3,5.9494553E-3,4.046885E-2,0E0,0E0,0E0,1.6494766E-3,0E0,0E0,0E0,0E0,3.448592E-2,0E0,0E0,0E0,0E0,0E0],"parents":[2147483647,0,0,1,1,2,2,5,5,6,6,7,7,8,8,9,9,10,10,11,11,14,14,15,15,16,16,20,20,25,25],"right_children":[2,4,6,-1,-1,8,10,12,14,16,18,20,-1,-1,22,24,26,-1,-1,-1,28,-1,-1,-1,-1,30,-1,-1,-1,-1,-1],"split_conditions":[-1.3396502E0,-1.3827409E0,3.606092E-2,2.2797896E-2,5.8877706E-3,7.4012056E-2,1.5131354E0,1.0346242E0,8.737623E-2,-7.938349E-1,6.2418606E-2,-6.779499E-1,1.3416064E-2,-2.9491067E-3,9.9505097E-1,-1.1418037E0,9.028877E-1,-2.4370314E-3,-1.2193552E-2,2.13995E-3,6.519611E-1,-1.6200865E-2,-3.0840219E-3,7.222653E-4,-7.254456E-3,-1.5060077E0,-5.350447E-3,-1.148625E-2,-3.8628858E-3,-3.1359077E-3,1.3853544E-2],"split_indices":[0,0,3,0,0,2,2,1,1,0,0,1,0,0,2,0,1,0,0,0,1,0,0,0,0,1,0,0,0,0,0],"split_type":[0,0,0,0,0,0,0,0,0,0,0,0,0,0,0,0,0,0,0,0,0,0,0,0,0,0,0,0,0,0,0],"sum_hessian":[2.8E1,2E0,2.6E1,1E0,1E0,1E1,1.6E1,6E0,4E0,1.4E1,2E0,5E0,1E0,1E0,3E0,4E0,1E1,1E0,1E0,1E0,4E0,2E0,1E0,1E0,3E0,9E0,1E0,2E0,2E0,1E0,8E0],"tree_param":{"num_deleted":"0","num_feature":"4","num_nodes":"31","size_leaf_vector":"1"}},{"base_weights":[9.8151555E-3,1.8167591E-1,-9.644008E-3,2.1658003E-2,5.593383E-3,-2.2080407E-2,1.5685117E-2,4.7762167E-2,-4.098398E-2,1.4445817E-1,-9.708657E-2,-2.5972893E-2,-1.2239287E-2,3.7194253E-3,1.6781474E-2,-2.9791116E-3,-1.1583874E-2,-6.105834E-2,6.022196E-2,2.8066302E-3,-9.9514825E-3,1.0155128E-2,-1.4957786E-3],"categories":[],"categories_nodes":[],"categories_segments":[],"categories_sizes":[],"default_left":[0,0,0,0,0,0,0,0,0,0,0,0,0,0,0,0,0,0,0,0,0,0,0],"id":29,"left_children":[1,3,5,-1,-1,7,-1,9,11,13,15,17,-1,-1,-1,-1,-1,19,21,-1,-1,-1,-1],"loss_changes":[9.8735824E-2,1.0525957E-3,5.936955E-2,0E0,0E0,3.628461E-2,0E0,9.806271E-2,2.2483855E-2,3.779523E-3,3.3484213E-4,6.113656E-2,0E0,0E0,0E0,0E0,0E0,5.0776895E-2,2.0161748E-2,0E0,0E0,0E0,0E0],"parents":[2147483647,0,0,1,1,2,2,5,5,7,7,8,8,9,9,10,10,11,11,17,17,18,18],"right_children":[2,4,6,-1,-1,8,-1,10,12,14,16,18,-1,-1,-1,-1,-1,20,22,-1,-1,-1,-1],"split_conditions":[-1.3396502E0,-1.3827409E0,2.066367E0,2.1658003E-2,5.593383E-3,-9.6024233E-1,1.5685117E-2,5.409138E-1,1.5741163E0,-2.0353892E-1,-3.2261747E-1,7.0841956E-1,-1.2239287E-2,3.7194253E-3,1.6781474E-2,-2.9791116E-3,-1.1583874E-2,-8.470269E-1,8.2235616E-1,2.8066302E-3,-9.9514825E-3,1.0155128E-2,-1.4957786E-3],"split_indices":[0,0,0,0,0,1,0,3,1,0,0,1,0,0,0,0,0,2,2,0,0,0,0],"split_type":[0,0,0,0,0,0,0,0,0,0,0,0,0,0,0,0,0,0,0,0,0,0,0],"sum_hessian":[2.8E1,2E0,2.6E1,1E0,1E0,2.5E1,1E0,5E0,2E1,3E0,2E0,1.8E1,2E0,1E0,2E0,1E0,1E0,1.3E1,5E0,4E0,9E0,3E0,2E0],"tree_param":{"num_deleted":"0","num_feature":"4","num_nodes":"23","size_leaf_vector":"1"}},{"base_weights":[1.0149143E-2,1.7259216E-1,-8.2759755E-3,2.0575106E-2,5.313718E-3,-2.0056484E-2,1.4900863E-2,-7.859016E-2,1.4331251E-3,7.609427E-4,-9.4225E-2,1.5765537E-2,-2.4683531E-2,-3.687048E-3,-1.3928935E-2,7.253369E-4,-1.1379591E-1,1.3513756E-2,-4.413918E-3,-2.8301538E-3,-1.3286019E-2],"categories":[],"categories_nodes":[],"categories_segments":[],"categories_sizes":[],"default_left":[0,0,0,0,0,0,0,0,0,0,0,0,0,0,0,0,0,0,0,0,0],"id":30,"left_children":[1,3,5,-1,-1,7,-1,9,11,-1,13,-1,15,-1,-1,17,19,-1,-1,-1,-1],"loss_changes":[8.8226296E-2,9.499565E-4,5.3016692E-2,0E0,0E0,3.2817144E-2,0E0,1.0151014E-2,8.549154E-2,0E0,1.0372195E-2,0E0,4.0838942E-2,0E0,0E0,9.641995E-2,2.7594008E-3,0E0,0E0,0E0,0E0],"parents":[2147483647,0,0,1,1,2,2,5,5,7,7,8,8,10,10,12,12,15,15,16,16],"right_children":[2,4,6,-1,-1,8,-1,10,12,-1,14,-1,16,-1,-1,18,20,-1,-1,-1,-1],"split_conditions":[-1.3396502E0,-1.3827409E0,2.066367E0,2.0575106E-2,5.313718E-3,-7.938349E-1,1.4900863E-2,-1.1418037E0,-3.6339146E-1,7.609427E-4,-5.016373E-1,1.5765537E-2,1.0457667E0,-3.687048E-3,-1.3928935E-2,-9.6024233E-1,-3.2261747E-1,1.3513756E-2,-4.413918E-3,-2.8301538E-3,-1.3286019E-2],"split_indices":[0,0,0,0,0,0,0,0,0,0,2,0,3,0,0,1,0,0,0,0,0],"split_type":[0,0,0,0,0,0,0,0,0,0,0,0,0,0,0,0,0,0,0,0,0],"sum_hessian":[2.8E1,2E0,2.6E1,1E0,1E0,2.5E1,1E0,6E0,1.9E1,1E0,5E0,2E0,1.7E1,3E0,2E0,1.4E1,3E0,3E0,1.1E1,1E0,2E0],"tree_param":{"num_deleted":"0","num_feature":"4","num_nodes":"21","size_leaf_vector":"1"}},{"base_weights":[1.0261259E-2,1.639626E-1,-7.1967146E-3,1.9546354E-2,5.0480366E-3,-1.83626E-2,1.4155817E-2,-7.3139004E-2,1.7272711E-3,7.2289706E-4,-8.77385E-2,1.4714499E-2,-2.2604976E-2,-3.4105212E-3,-1.3000338E-2,1.2594621E-3,-1.0644537E-1,1.0845504E-2,-4.7580297E-3,-2.6886463E-3,-1.2400285E-2],"categories":[],"categories_nodes":[],"categories_segments":[],"categories_sizes":[],"default_left":[0,0,0,0,0,0,0,0,0,0,0,0,0,0,0,0,0,0,0,0,0],"id":31,"left_children":[1,3,5,-1,-1,7,-1,9,11,-1,13,-1,15,-1,-1,17,19,-1,-1,-1,-1],"loss_changes":[7.899609E-2,8.573234E-4,4.7445845E-2,0E0,0E0,2.8738054E-2,0E0,8.847583E-3,7.4093E-2,0E0,9.16703E-3,0E0,3.6148533E-2,0E0,0E0,8.369141E-2,2.253417E-3,0E0,0E0,0E0,0E0],"parents":[2147483647,0,0,1,1,2,2,5,5,7,7,8,8,10,10,12,12,15,15,16,16],"right_children":[2,4,6,-1,-1,8,-1,10,12,-1,14,-1,16,-1,-1,18,20,-1,-1,-1,-1],"split_conditions":[-1.3396502E0,-1.3827409E0,2.066367E0,1.9546354E-2,5.0480366E-3,-7.938349E-1,1.4155817E-2,-1.1418037E0,-3.6339146E-1,7.2289706E-4,-5.016373E-1,1.4714499E-2,1.0457667E0,-3.4105212E-3,-1.3000338E-2,-6.779499E-1,-3.2261747E-1,1.0845504E-2,-4.7580297E-3,-2.6886463E-3,-1.2400285E-2],"split_indices":[0,0,0,0,0,0,0,0,0,0,2,0,3,0,0,1,0,0,0,0,0],"split_type":[0,0,0,0,0,0,0,0,0,0,0,0,0,0,0,0,0,0,0,0,0],"sum_hessian":[2.8E1,2E0,2.6E1,1E0,1E0,2.5E1,1E0,6E0,1.9E1,1E0,5E0,2E0,1.7E1,3E0,2E0,1.4E1,3E0,4E0,1E1,1E0,2E0],"tree_param":{"num_deleted":"0","num_feature":"4","num_nodes":"21","size_leaf_vector":"1"}},{"base_weights":[1.022739E-2,1.557645E-1,-6.322193E-3,1.8569041E-2,4.7956347E-3,-1.6909989E-2,1.3448024E-2,-6.806625E-2,1.840201E-3,6.867528E-4,-8.1699796E-2,1.3733535E-2,-2.0844556E-2,-3.154731E-3,-1.2133651E-2,1.5393535E-3,-9.9573076E-2,1.4038754E-2,-3.0620946E-3,-2.554214E-3,-1.1573601E-2],"categories":[],"categories_nodes":[],"categories_segments":[],"categories_sizes":[],"default_left":[0,0,0,0,0,0,0,0,0,0,0,0,0,0,0,0,0,0,0,0,0],"id":32,"left_children":[1,3,5,-1,-1,7,-1,9,11,-1,13,-1,15,-1,-1,17,19,-1,-1,-1,-1],"loss_changes":[7.083355E-2,7.7373534E-4,4.2525314E-2,0E0,0E0,2.5064178E-2,0E0,7.7123716E-3,6.433618E-2,0E0,8.0994405E-3,0E0,3.1873815E-2,0E0,0E0,7.127978E-2,1.8300824E-3,0E0,0E0,0E0,0E0],"parents":[2147483647,0,0,1,1,2,2,5,5,7,7,8,8,10,10,12,12,15,15,16,16],"right_children":[2,4,6,-1,-1,8,-1,10,12,-1,14,-1,16,-1,-1,18,20,-1,-1,-1,-1],"split_conditions":[-1.3396502E0,-1.3827409E0,2.066367E0,1.8569041E-2,4.7956347E-3,-7.938349E-1,1.3448024E-2,-1.1418037E0,-3.6339146E-1,6.867528E-4,-5.016373E-1,1.3733535E-2,1.0457667E0,-3.154731E-3,-1.2133651E-2,-1.2362616E0,-3.2261747E-1,1.4038754E-2,-3.0620946E-3,-2.554214E-3,-1.1573601E-2],"split_indices":[0,0,0,0,0,0,0,0,0,0,2,0,3,0,0,1,0,0,0,0,0],"split_type":[0,0,0,0,0,0,0,0,0,0,0,0,0,0,0,0,0,0,0,0,0],"sum_hessian":[2.8E1,2E0,2.6E1,1E0,1E0,2.5E1,1E0,6E0,1.9E1,1E0,5E0,2E0,1.7E1,3E0,2E0,1.4E1,3E0,2E0,1.2E1,1E0,2E0],"tree_param":{"num_deleted":"0","num_feature":"4","num_nodes":"21","size_leaf_vector":"1"}},{"base_weights":[1.0335463E-2,1.4797632E-1,-5.3407606E-3,1.764059E-2,4.5558573E-3,-1.5373577E-2,1.2775624E-2,-4.5129186E-3,-9.713433E-3,-1.5882349E-2,1.28492E-2,1.0139546E-2,-7.680947E-2,-4.7876127E-4,1.2448705E-2,7.205546E-3,-1.1362954E-2],"categories":[],"categories_nodes":[],"categories_segments":[],"categories_sizes":[],"default_left":[0,0,0,0,0,0,0,0,0,0,0,0,0,0,0,0,0],"id":33,"left_children":[1,3,5,-1,-1,7,-1,9,-1,11,-1,13,15,-1,-1,-1,-1],"loss_changes":[6.3363284E-2,6.982833E-4,3.8018193E-2,0E0,0E0,2.2649005E-2,0E0,3.833332E-2,0E0,3.7243914E-2,0E0,2.961301E-2,4.655615E-2,0E0,0E0,0E0,0E0],"parents":[2147483647,0,0,1,1,2,2,5,5,7,7,9,9,11,11,12,12],"right_children":[2,4,6,-1,-1,8,-1,10,-1,12,-1,14,16,-1,-1,-1,-1],"split_conditions":[-1.3396502E0,-1.3827409E0,2.066367E0,1.764059E-2,4.5558573E-3,1.5741163E0,1.2775624E-2,1.1914533E0,-9.713433E-3,5.869202E-1,1.28492E-2,4.9193537E-1,-1.3366323E0,-4.7876127E-4,1.2448705E-2,7.205546E-3,-1.1362954E-2],"split_indices":[0,0,0,0,0,1,0,1,0,0,0,0,1,0,0,0,0],"split_type":[0,0,0,0,0,0,0,0,0,0,0,0,0,0,0,0,0],"sum_hessian":[2.8E1,2E0,2.6E1,1E0,1E0,2.5E1,1E0,2.3E1,2E0,2.2E1,1E0,1.6E1,6E0,1.5E1,1E0,1E0,5E0],"tree_param":{"num_deleted":"0","num_feature":"4","num_nodes":"17","size_leaf_vector":"1"}},{"base_weights":[1.0885365E-2,1.4057748E-1,-3.9280313E-3,1.6758561E-2,4.3280604E-3,-1.3415141E-2,1.2136841E-2,-6.1615966E-2,4.125905E-3,6.763518E-4,-7.4139796E-2,1.2849884E-2,-1.6832134E-2,-2.8822185E-3,-1.0985002E-2,1.2901123E-2,-6.5398835E-2,-5.9786947E-3,7.3362165E-3,-2.6353097E-3,-1.0867546E-2],"categories":[],"categories_nodes":[],"categories_segments":[],"categories_sizes":[],"default_left":[0,0,0,0,0,0,0,0,0,0,0,0,0,0,0,0,0,0,0,0,0],"id":34,"left_children":[1,3,5,-1,-1,7,-1,9,11,-1,13,-1,15,-1,-1,17,19,-1,-1,-1,-1],"loss_changes":[5.6266427E-2,6.3021854E-4,3.37231E-2,0E0,0E0,2.2237036E-2,0E0,6.496059E-3,5.4295164E-2,0E0,6.543692E-3,0E0,2.6836548E-2,0E0,0E0,5.7123657E-2,8.964442E-3,0E0,0E0,0E0,0E0],"parents":[2147483647,0,0,1,1,2,2,5,5,7,7,8,8,10,10,12,12,15,15,16,16],"right_children":[2,4,6,-1,-1,8,-1,10,12,-1,14,-1,16,-1,-1,18,20,-1,-1,-1,-1],"split_conditions":[-1.3396502E0,-1.3827409E0,2.066367E0,1.6758561E-2,4.3280604E-3,-7.938349E-1,1.2136841E-2,-1.1418037E0,-3.6339146E-1,6.763518E-4,-5.016373E-1,1.2849884E-2,3.042718E-1,-2.8822185E-3,-1.0985002E-2,-5.592022E-1,7.678217E-2,-5.9786947E-3,7.3362165E-3,-2.6353097E-3,-1.0867546E-2],"split_indices":[0,0,0,0,0,0,0,0,0,0,2,0,2,0,0,2,0,0,0,0,0],"split_type":[0,0,0,0,0,0,0,0,0,0,0,0,0,0,0,0,0,0,0,0,0],"sum_hessian":[2.8E1,2E0,2.6E1,1E0,1E0,2.5E1,1E0,6E0,1.9E1,1E0,5E0,2E0,1.7E1,3E0,2E0,1.1E1,6E0,5E0,6E0,4E0,2E0],"tree_param":{"num_deleted":"0","num_feature":"4","num_nodes":"21","size_leaf_vector":"1"}},{"base_weights":[1.0511913E-2,1.3354857E-1,-3.5481574E-3,1.5920628E-2,4.1116597E-3,-1.2553851E-2,1.1529994E-2,-5.733877E-2,3.748563E-3,6.4253213E-4,-6.9037005E-2,1.1993221E-2,-1.5823632E-2,-2.6660503E-3,-1.0252668E-2,3.6700645E-3,-8.496909E-2,8.8442685E-3,-3.5196587E-3,-2.1036328E-3,-9.92679E-3],"categories":[],"categories_nodes":[],"categories_segments":[],"categories_sizes":[],"default_left":[0,0,0,0,0,0,0,0,0,0,0,0,0,0,0,0,0,0,0,0,0],"id":35,"left_children":[1,3,5,-1,-1,7,-1,9,11,-1,13,-1,15,-1,-1,17,19,-1,-1,-1,-1],"loss_changes":[5.0641075E-2,5.6875125E-4,3.0345818E-2,0E0,0E0,1.9197596E-2,0E0,5.665077E-3,4.7377147E-2,0E0,5.7816375E-3,0E0,2.4574053E-2,0E0,0E0,5.2535295E-2,1.5684199E-3,0E0,0E0,0E0,0E0],"parents":[2147483647,0,0,1,1,2,2,5,5,7,7,8,8,10,10,12,12,15,15,16,16],"right_children":[2,4,6,-1,-1,8,-1,10,12,-1,14,-1,16,-1,-1,18,20,-1,-1,-1,-1],"split_conditions":[-1.3396502E0,-1.3827409E0,2.066367E0,1.5920628E-2,4.1116597E-3,-7.938349E-1,1.1529994E-2,-1.1418037E0,-3.6339146E-1,6.4253213E-4,-5.016373E-1,1.1993221E-2,1.0457667E0,-2.6660503E-3,-1.0252668E-2,-6.779499E-1,-3.2261747E-1,8.8442685E-3,-3.5196587E-3,-2.1036328E-3,-9.92679E-3],"split_indices":[0,0,0,0,0,0,0,0,0,0,2,0,3,0,0,1,0,0,0,0,0],"split_type":[0,0,0,0,0,0,0,0,0,0,0,0,0,0,0,0,0,0,0,0,0],"sum_hessian":[2.8E1,2E0,2.6E1,1E0,1E0,2.5E1,1E0,6E0,1.9E1,1E0,5E0,2E0,1.7E1,3E0,2E0,1.4E1,3E0,4E0,1E1,1E0,2E0],"tree_param":{"num_deleted":"0","num_feature":"4","num_nodes":"21","size_leaf_vector":"1"}},{"base_weights":[1.0308078E-2,1.2687111E-1,-3.0251509E-3,1.5124596E-2,3.9060712E-3,-1.156727E-2,1.0953498E-2,-5.3358644E-2,3.6380738E-3,6.1040523E-4,-6.428643E-2,1.1193677E-2,-1.4613824E-2,-2.4660975E-3,-9.569157E-3,3.6580164E-3,-7.947977E-2,1.136899E-2,-2.2015343E-3,-1.9984485E-3,-9.265004E-3],"categories":[],"categories_nodes":[],"categories_segments":[],"categories_sizes":[],"default_left":[0,0,0,0,0,0,0,0,0,0,0,0,0,0,0,0,0,0,0,0,0],"id":36,"left_children":[1,3,5,-1,-1,7,-1,9,11,-1,13,-1,15,-1,-1,17,19,-1,-1,-1,-1],"loss_changes":[4.545449E-2,5.133189E-4,2.7227577E-2,0E0,0E0,1.671588E-2,0E0,4.940981E-3,4.1168958E-2,0E0,5.1068086E-3,0E0,2.1624701E-2,0E0,0E0,4.4876244E-2,1.2827143E-3,0E0,0E0,0E0,0E0],"parents":[2147483647,0,0,1,1,2,2,5,5,7,7,8,8,10,10,12,12,15,15,16,16],"right_children":[2,4,6,-1,-1,8,-1,10,12,-1,14,-1,16,-1,-1,18,20,-1,-1,-1,-1],"split_conditions":[-1.3396502E0,-1.3827409E0,2.066367E0,1.5124596E-2,3.9060712E-3,-7.938349E-1,1.0953498E-2,-1.1418037E0,-3.6339146E-1,6.1040523E-4,-5.016373E-1,1.1193677E-2,1.0457667E0,-2.4660975E-3,-9.569157E-3,-1.2362616E0,-3.2261747E-1,1.136899E-2,-2.2015343E-3,-1.9984485E-3,-9.265004E-3],"split_indices":[0,0,0,0,0,0,0,0,0,0,2,0,3,0,0,1,0,0,0,0,0],"split_type":[0,0,0,0,0,0,0,0,0,0,0,0,0,0,0,0,0,0,0,0,0],"sum_hessian":[2.8E1,2E0,2.6E1,1E0,1E0,2.5E1,1E0,6E0,1.9E1,1E0,5E0,2E0,1.7E1,3E0,2E0,1.4E1,3E0,2E0,1.2E1,1E0,2E0],"tree_param":{"num_deleted":"0","num_feature":"4","num_nodes":"21","size_leaf_vector":"1"}},{"base_weights":[1.0230974E-2,1.2052759E-1,-2.40313E-3,1.4368367E-2,3.7107707E-3,-1.050004E-2,1.0405826E-2,1.3509459E-2,-3.5548728E-2,-2.1863623E-2,1.5049863E-2,5.467796E-3,-4.7624115E-2,-4.216525E-2,1.0072715E-2,-1.8558796E-2,-8.46038E-2,-1.916068E-3,-7.7633075E-3,-5.1350826E-3,2.707094E-3,-9.934677E-3,-1.2815982E-3],"categories":[],"categories_nodes":[],"categories_segments":[],"categories_sizes":[],"default_left":[0,0,0,0,0,0,0,0,0,0,0,0,0,0,0,0,0,0,0,0,0,0,0],"id":37,"left_children":[1,3,5,-1,-1,7,-1,9,11,13,-1,-1,15,17,-1,19,21,-1,-1,-1,-1,-1,-1],"loss_changes":[4.070111E-2,4.632622E-4,2.436684E-2,0E0,0E0,1.6116813E-2,0E0,7.113065E-2,1.6767781E-2,3.411269E-2,0E0,0E0,1.1327775E-2,7.48764E-3,0E0,1.3360448E-2,4.0185973E-3,0E0,0E0,0E0,0E0,0E0,0E0],"parents":[2147483647,0,0,1,1,2,2,5,5,7,7,8,8,9,9,12,12,13,13,15,15,16,16],"right_children":[2,4,6,-1,-1,8,-1,10,12,14,-1,-1,16,18,-1,20,22,-1,-1,-1,-1,-1,-1],"split_conditions":[-1.3396502E0,-1.3827409E0,2.066367E0,1.4368367E-2,3.7107707E-3,1.6447123E-2,1.0405826E-2,-2.138126E-1,-1.3366323E0,1.5506196E0,1.5049863E-2,5.467796E-3,7.678217E-2,-1.3569262E-2,1.0072715E-2,5.409138E-1,6.0177577E-1,-1.916068E-3,-7.7633075E-3,-5.1350826E-3,2.707094E-3,-9.934677E-3,-1.2815982E-3],"split_indices":[0,0,0,0,0,2,0,2,1,3,0,0,0,0,0,3,1,0,0,0,0,0,0],"split_type":[0,0,0,0,0,0,0,0,0,0,0,0,0,0,0,0,0,0,0,0,0,0,0],"sum_hessian":[2.8E1,2E0,2.6E1,1E0,1E0,2.5E1,1E0,1.3E1,1.2E1,1.1E1,2E0,1E0,1.1E1,1E1,1E0,7E0,4E0,7E0,3E0,4E0,3E0,3E0,1E0],"tree_param":{"num_deleted":"0","num_feature":"4","num_nodes":"23","size_leaf_vector":"1"}},{"base_weights":[1.0440683E-2,1.1450124E-1,-1.5082933E-3,1.3649953E-2,3.5252334E-3,-9.170564E-3,9.885537E-3,-4.821316E-2,4.952873E-3,4.4453144E-4,-5.7730462E-2,1.002144E-2,-1.1199208E-2,-2.1374375E-3,-8.696175E-3,7.629237E-3,-6.1679013E-2,-4.7847196E-3,4.376583E-3,-1.6295353E-3,-8.6503E-3],"categories":[],"categories_nodes":[],"categories_segments":[],"categories_sizes":[],"default_left":[0,0,0,0,0,0,0,0,0,0,0,0,0,0,0,0,0,0,0,0,0],"id":38,"left_children":[1,3,5,-1,-1,7,-1,9,11,-1,13,-1,15,-1,-1,17,19,-1,-1,-1,-1],"loss_changes":[3.6231793E-2,4.1809306E-4,2.1669926E-2,0E0,0E0,1.4575602E-2,0E0,3.7647951E-3,3.189576E-2,0E0,4.5176595E-3,0E0,1.7578775E-2,0E0,0E0,3.0160278E-2,4.223421E-3,0E0,0E0,0E0,0E0],"parents":[2147483647,0,0,1,1,2,2,5,5,7,7,8,8,10,10,12,12,15,15,16,16],"right_children":[2,4,6,-1,-1,8,-1,10,12,-1,14,-1,16,-1,-1,18,20,-1,-1,-1,-1],"split_conditions":[-1.3396502E0,-1.3827409E0,2.066367E0,1.3649953E-2,3.5252334E-3,-7.938349E-1,9.885537E-3,-1.1418037E0,-3.6339146E-1,4.4453144E-4,-5.016373E-1,1.002144E-2,7.6479125E-1,-2.1374375E-3,-8.696175E-3,-5.592022E-1,6.2418606E-2,-4.7847196E-3,4.376583E-3,-1.6295353E-3,-8.6503E-3],"split_indices":[0,0,0,0,0,0,0,0,0,0,2,0,2,0,0,2,0,0,0,0,0],"split_type":[0,0,0,0,0,0,0,0,0,0,0,0,0,0,0,0,0,0,0,0,0],"sum_hessian":[2.8E1,2E0,2.6E1,1E0,1E0,2.5E1,1E0,6E0,1.9E1,1E0,5E0,2E0,1.7E1,3E0,2E0,1.3E1,4E0,5E0,8E0,2E0,2E0],"tree_param":{"num_deleted":"0","num_feature":"4","num_nodes":"21","size_leaf_vector":"1"}},{"base_weights":[9.948512E-3,1.08776174E-1,-1.400803E-3,1.2967455E-2,3.3489706E-3,-8.678726E-3,9.39126E-3,1.4395916E-2,-3.286075E-2,-1.7591657E-2,1.3754757E-2,4.9755694E-3,-4.3891758E-2,-3.567818E-2,9.068007E-3,-1.7914396E-2,-7.667719E-2,-1.4946469E-3,-6.822207E-3,-3.4650767E-3,4.9620094E-3,-8.866475E-3,-1.4363468E-3],"categories":[],"categories_nodes":[],"categories_segments":[],"categories_sizes":[],"default_left":[0,0,0,0,0,0,0,0,0,0,0,0,0,0,0,0,0,0,0,0,0,0,0],"id":39,"left_children":[1,3,5,-1,-1,7,-1,9,11,13,-1,-1,15,17,-1,19,21,-1,-1,-1,-1,-1,-1],"loss_changes":[3.2679535E-2,3.7733093E-4,1.9544499E-2,0E0,0E0,1.498084E-2,0E0,5.7570208E-2,1.4031323E-2,2.6734412E-2,0E0,0E0,8.8465195E-3,6.401916E-3,0E0,1.076163E-2,2.461411E-3,0E0,0E0,0E0,0E0,0E0,0E0],"parents":[2147483647,0,0,1,1,2,2,5,5,7,7,8,8,9,9,12,12,13,13,15,15,16,16],"right_children":[2,4,6,-1,-1,8,-1,10,12,14,-1,-1,16,18,-1,20,22,-1,-1,-1,-1,-1,-1],"split_conditions":[-1.3396502E0,-1.3827409E0,2.066367E0,1.2967455E-2,3.3489706E-3,1.6447123E-2,9.39126E-3,-2.138126E-1,-1.3366323E0,1.5506196E0,1.3754757E-2,4.9755694E-3,7.678217E-2,-1.3569262E-2,9.068007E-3,1.0457667E0,6.0177577E-1,-1.4946469E-3,-6.822207E-3,-3.4650767E-3,4.9620094E-3,-8.866475E-3,-1.4363468E-3],"split_indices":[0,0,0,0,0,2,0,2,1,3,0,0,0,0,0,3,1,0,0,0,0,0,0],"split_type":[0,0,0,0,0,0,0,0,0,0,0,0,0,0,0,0,0,0,0,0,0,0,0],"sum_hessian":[2.8E1,2E0,2.6E1,1E0,1E0,2.5E1,1E0,1.3E1,1.2E1,1.1E1,2E0,1E0,1.1E1,1E1,1E0,7E0,4E0,7E0,3E0,6E0,1E0,3E0,1E0],"tree_param":{"num_deleted":"0","num_feature":"4","num_nodes":"23","size_leaf_vector":"1"}},{"base_weights":[1.0208251E-2,1.0333737E-1,-5.175118E-4,1.2319088E-2,3.1815171E-3,-7.4002584E-3,8.921695E-3,1.3992459E-2,-2.9869318E-2,-1.5769884E-2,1.2837768E-2,4.7267913E-3,-4.0236413E-2,-3.286644E-2,8.614612E-3,-1.593585E-2,-7.107003E-2,-1.0378881E-3,-5.7775737E-3,4.130653E-4,-7.820069E-3,-8.20149E-3,-1.3645291E-3],"categories":[],"categories_nodes":[],"categories_segments":[],"categories_sizes":[],"default_left":[0,0,0,0,0,0,0,0,0,0,0,0,0,0,0,0,0,0,0,0,0,0,0],"id":40,"left_children":[1,3,5,-1,-1,7,-1,9,11,13,-1,-1,15,17,-1,19,21,-1,-1,-1,-1,-1,-1],"loss_changes":[2.9021023E-2,3.405586E-4,1.7335957E-2,0E0,0E0,1.2915475E-2,0E0,4.968571E-2,1.2297849E-2,2.3740267E-2,0E0,0E0,7.858731E-3,5.5619935E-3,0E0,1.0318519E-2,2.0234138E-3,0E0,0E0,0E0,0E0,0E0,0E0],"parents":[2147483647,0,0,1,1,2,2,5,5,7,7,8,8,9,9,12,12,13,13,15,15,16,16],"right_children":[2,4,6,-1,-1,8,-1,10,12,14,-1,-1,16,18,-1,20,22,-1,-1,-1,-1,-1,-1],"split_conditions":[-1.3396502E0,-1.3827409E0,2.066367E0,1.2319088E-2,3.1815171E-3,1.6447123E-2,8.921695E-3,-2.138126E-1,-1.3366323E0,1.5506196E0,1.2837768E-2,4.7267913E-3,7.678217E-2,3.3830285E-1,8.614612E-3,1.1914533E0,6.0177577E-1,-1.0378881E-3,-5.7775737E-3,4.130653E-4,-7.820069E-3,-8.20149E-3,-1.3645291E-3],"split_indices":[0,0,0,0,0,2,0,2,1,3,0,0,0,1,0,1,1,0,0,0,0,0,0],"split_type":[0,0,0,0,0,0,0,0,0,0,0,0,0,0,0,0,0,0,0,0,0,0,0],"sum_hessian":[2.8E1,2E0,2.6E1,1E0,1E0,2.5E1,1E0,1.3E1,1.2E1,1.1E1,2E0,1E0,1.1E1,1E1,1E0,7E0,4E0,6E0,4E0,6E0,1E0,3E0,1E0],"tree_param":{"num_deleted":"0","num_feature":"4","num_nodes":"23","size_leaf_vector":"1"}},{"base_weights":[1.0112003E-2,9.817052E-2,-4.6795165E-5,1.1703134E-2,3.0224442E-3,-6.5682977E-3,8.475614E-3,1.3638685E-2,-2.7824411E-2,-1.4042971E-2,1.1981908E-2,4.490447E-3,-3.762719E-2,-3.0199395E-2,8.183884E-3,-1.5268136E-2,-6.587624E-2,-1.2138061E-3,-5.8772215E-3,-4.2840014E-3,2.3013742E-3,-7.5863786E-3,-1.2963027E-3],"categories":[],"categories_nodes":[],"categories_segments":[],"categories_sizes":[],"default_left":[0,0,0,0,0,0,0,0,0,0,0,0,0,0,0,0,0,0,0,0,0,0,0],"id":41,"left_children":[1,3,5,-1,-1,7,-1,9,11,13,-1,-1,15,17,-1,19,21,-1,-1,-1,-1,-1,-1],"loss_changes":[2.5947087E-2,3.0734763E-4,1.5488853E-2,0E0,0E0,1.1547059E-2,0E0,4.2832106E-2,1.0957915E-2,2.106077E-2,0E0,0E0,6.5736566E-3,4.963315E-3,0E0,9.4299335E-3,1.6589426E-3,0E0,0E0,0E0,0E0,0E0,0E0],"parents":[2147483647,0,0,1,1,2,2,5,5,7,7,8,8,9,9,12,12,13,13,15,15,16,16],"right_children":[2,4,6,-1,-1,8,-1,10,12,14,-1,-1,16,18,-1,20,22,-1,-1,-1,-1,-1,-1],"split_conditions":[-1.3396502E0,-1.3827409E0,2.066367E0,1.1703134E-2,3.0224442E-3,1.6447123E-2,8.475614E-3,-2.138126E-1,-1.3366323E0,1.5506196E0,1.1981908E-2,4.490447E-3,7.678217E-2,-1.3569262E-2,8.183884E-3,5.409138E-1,6.0177577E-1,-1.2138061E-3,-5.8772215E-3,-4.2840014E-3,2.3013742E-3,-7.5863786E-3,-1.2963027E-3],"split_indices":[0,0,0,0,0,2,0,2,1,3,0,0,0,0,0,3,1,0,0,0,0,0,0],"split_type":[0,0,0,0,0,0,0,0,0,0,0,0,0,0,0,0,0,0,0,0,0,0,0],"sum_hessian":[2.8E1,2E0,2.6E1,1E0,1E0,2.5E1,1E0,1.3E1,1.2E1,1.1E1,2E0,1E0,1.1E1,1E1,1E0,7E0,4E0,7E0,3E0,4E0,3E0,3E0,1E0],"tree_param":{"num_deleted":"0","num_feature":"4","num_nodes":"23","size_leaf_vector":"1"}},{"base_weights":[1.0131872E-2,9.326196E-2,5.1994127E-4,1.11179715E-2,2.8713227E-3,-3.9726745E-2,1.3910745E-2,4.5983793E-4,-4.7880664E-2,8.235252E-3,2.3720046E-3,-1.577665E-3,-7.47258E-3,-6.4427024E-3,8.051837E-3,-1.72338E-2,5.3257387E-2,2.462583E-3,-3.8499616E-3,-1.2373328E-3,9.225941E-3],"categories":[],"categories_nodes":[],"categories_segments":[],"categories_sizes":[],"default_left":[0,0,0,0,0,0,0,0,0,0,0,0,0,0,0,0,0,0,0,0,0],"id":42,"left_children":[1,3,5,-1,-1,7,9,-1,11,-1,13,-1,-1,15,-1,17,19,-1,-1,-1,-1],"loss_changes":[2.3123689E-2,2.773758E-4,1.5103887E-2,0E0,0E0,2.7501378E-3,1.6389027E-2,0E0,3.9920975E-3,0E0,1.3606664E-2,0E0,0E0,1.2513958E-2,0E0,1.519095E-2,8.820748E-3,0E0,0E0,0E0,0E0],"parents":[2147483647,0,0,1,1,2,2,5,5,6,6,8,8,10,10,13,13,15,15,16,16],"right_children":[2,4,6,-1,-1,8,10,-1,12,-1,14,-1,-1,16,-1,18,20,-1,-1,-1,-1],"split_conditions":[-1.3396502E0,-1.3827409E0,-7.938349E-1,1.11179715E-2,2.8713227E-3,-1.1418037E0,-3.6339146E-1,4.5983793E-4,-5.016373E-1,8.235252E-3,2.066367E0,-1.577665E-3,-7.47258E-3,1.1914533E0,8.051837E-3,-9.6024233E-1,5.1324904E-1,2.462583E-3,-3.8499616E-3,-1.2373328E-3,9.225941E-3],"split_indices":[0,0,0,0,0,0,0,0,2,0,0,0,0,1,0,1,0,0,0,0,0],"split_type":[0,0,0,0,0,0,0,0,0,0,0,0,0,0,0,0,0,0,0,0,0],"sum_hessian":[2.8E1,2E0,2.6E1,1E0,1E0,6E0,2E1,1E0,5E0,2E0,1.8E1,3E0,2E0,1.7E1,1E0,1.5E1,2E0,5E0,1E1,1E0,1E0],"tree_param":{"num_deleted":"0","num_feature":"4","num_nodes":"21","size_leaf_vector":"1"}},{"base_weights":[1.0094112E-2,8.8598885E-2,9.975025E-4,1.0562074E-2,2.7277588E-3,-3.6981273E-2,1.3609594E-2,4.368484E-4,-4.460098E-2,7.6862373E-3,2.9060182E-3,-1.4593408E-3,-6.974408E-3,-5.431695E-3,7.649243E-3,7.786445E-3,-5.3641796E-2,6.293149E-3,-1.7987343E-3,-1.4993072E-3,-6.1527016E-3],"categories":[],"categories_nodes":[],"categories_segments":[],"categories_sizes":[],"default_left":[0,0,0,0,0,0,0,0,0,0,0,0,0,0,0,0,0,0,0,0,0],"id":43,"left_children":[1,3,5,-1,-1,7,9,-1,11,-1,13,-1,-1,15,-1,17,19,-1,-1,-1,-1],"loss_changes":[2.0621313E-2,2.5032833E-4,1.3436078E-2,0E0,0E0,2.4003498E-3,1.3994287E-2,0E0,3.5090968E-3,0E0,1.20727895E-2,0E0,0E0,1.1888141E-2,0E0,2.2451421E-2,2.9653497E-4,0E0,0E0,0E0,0E0],"parents":[2147483647,0,0,1,1,2,2,5,5,6,6,8,8,10,10,13,13,15,15,16,16],"right_children":[2,4,6,-1,-1,8,10,-1,12,-1,14,-1,-1,16,-1,18,20,-1,-1,-1,-1],"split_conditions":[-1.3396502E0,-1.3827409E0,-7.938349E-1,1.0562074E-2,2.7277588E-3,-1.1418037E0,-3.6339146E-1,4.368484E-4,-5.016373E-1,7.6862373E-3,2.066367E0,-1.4593408E-3,-6.974408E-3,1.0457667E0,7.649243E-3,-6.779499E-1,-3.2261747E-1,6.293149E-3,-1.7987343E-3,-1.4993072E-3,-6.1527016E-3],"split_indices":[0,0,0,0,0,0,0,0,2,0,0,0,0,3,0,1,0,0,0,0,0],"split_type":[0,0,0,0,0,0,0,0,0,0,0,0,0,0,0,0,0,0,0,0,0],"sum_hessian":[2.8E1,2E0,2.6E1,1E0,1E0,6E0,2E1,1E0,5E0,2E0,1.8E1,3E0,2E0,1.7E1,1E0,1.4E1,3E0,4E0,1E1,1E0,2E0],"tree_param":{"num_deleted":"0","num_feature":"4","num_nodes":"21","size_leaf_vector":"1"}},{"base_weights":[9.687154E-3,8.416891E-2,1.0526191E-3,1.0033965E-2,2.5913715E-3,-3.442556E-2,1.2828554E-2,-1.8521437E-2,-6.492515E-3,7.1738246E-3,2.8518375E-3,4.150033E-4,-2.3885738E-2,-5.063931E-3,7.2667836E-3,-9.18897E-4,-3.0620596E-3,-1.5408233E-2,5.1793654E-2,2.070245E-3,-3.3704222E-3,-1.0855318E-3,8.85458E-3],"categories":[],"categories_nodes":[],"categories_segments":[],"categories_sizes":[],"default_left":[0,0,0,0,0,0,0,0,0,0,0,0,0,0,0,0,0,0,0,0,0,0,0],"id":44,"left_children":[1,3,5,-1,-1,7,9,11,-1,-1,13,-1,15,17,-1,-1,-1,19,21,-1,-1,-1,-1],"loss_changes":[1.8561743E-2,2.2591837E-4,1.1721927E-2,0E0,0E0,2.192977E-3,1.2137646E-2,8.2882587E-4,0E0,0E0,1.0868283E-2,0E0,2.1353154E-4,1.1384784E-2,0E0,0E0,0E0,1.1268651E-2,7.868645E-3,0E0,0E0,0E0,0E0],"parents":[2147483647,0,0,1,1,2,2,5,5,6,6,7,7,10,10,12,12,13,13,17,17,18,18],"right_children":[2,4,6,-1,-1,8,10,12,-1,-1,14,-1,16,18,-1,-1,-1,20,22,-1,-1,-1,-1],"split_conditions":[-1.3396502E0,-1.3827409E0,-7.938349E-1,1.0033965E-2,2.5913715E-3,1.0346242E0,-3.6339146E-1,-1.1418037E0,-6.492515E-3,7.1738246E-3,2.066367E0,4.150033E-4,-6.1676717E-1,1.1914533E0,7.2667836E-3,-9.18897E-4,-3.0620596E-3,-9.6024233E-1,5.1324904E-1,2.070245E-3,-3.3704222E-3,-1.0855318E-3,8.85458E-3],"split_indices":[0,0,0,0,0,1,0,0,0,0,0,0,2,1,0,0,0,1,0,0,0,0,0],"split_type":[0,0,0,0,0,0,0,0,0,0,0,0,0,0,0,0,0,0,0,0,0,0,0],"sum_hessian":[2.8E1,2E0,2.6E1,1E0,1E0,6E0,2E1,5E0,1E0,2E0,1.8E1,1E0,4E0,1.7E1,1E0,2E0,2E0,1.5E1,2E0,5E0,1E1,1E0,1E0],"tree_param":{"num_deleted":"0","num_feature":"4","num_nodes":"23","size_leaf_vector":"1"}},{"base_weights":[9.5279785E-3,7.99605E-2,1.3492538E-3,9.532273E-3,2.461803E-3,-3.2419924E-2,1.2541397E-2,-1.7263612E-2,-6.16789E-3,6.6955723E-3,3.2895866E-3,3.9425492E-4,-2.2293353E-2,-4.198154E-3,6.903446E-3,-8.576374E-4,-2.8579214E-3,8.397714E-3,-5.038312E-2,5.732899E-3,-1.4607202E-3,-1.5278518E-3,-5.6991815E-3],"categories":[],"categories_nodes":[],"categories_segments":[],"categories_sizes":[],"default_left":[0,0,0,0,0,0,0,0,0,0,0,0,0,0,0,0,0,0,0,0,0,0,0],"id":45,"left_children":[1,3,5,-1,-1,7,9,11,-1,-1,13,-1,15,17,-1,-1,-1,19,21,-1,-1,-1,-1],"loss_changes":[1.6597511E-2,2.0389259E-4,1.0611226E-2,0E0,0E0,2.039407E-3,1.0351794E-2,7.2786154E-4,0E0,0E0,9.643148E-3,0E0,1.860091E-4,1.0894419E-2,0E0,0E0,0E0,1.7722314E-2,5.7231635E-5,0E0,0E0,0E0,0E0],"parents":[2147483647,0,0,1,1,2,2,5,5,6,6,7,7,10,10,12,12,13,13,17,17,18,18],"right_children":[2,4,6,-1,-1,8,10,12,-1,-1,14,-1,16,18,-1,-1,-1,20,22,-1,-1,-1,-1],"split_conditions":[-1.3396502E0,-1.3827409E0,-7.938349E-1,9.532273E-3,2.461803E-3,1.0346242E0,-3.6339146E-1,-1.1418037E0,-6.16789E-3,6.6955723E-3,2.066367E0,3.9425492E-4,-6.1676717E-1,1.0457667E0,6.903446E-3,-8.576374E-4,-2.8579214E-3,-6.779499E-1,-3.2261747E-1,5.732899E-3,-1.4607202E-3,-1.5278518E-3,-5.6991815E-3],"split_indices":[0,0,0,0,0,1,0,0,0,0,0,0,2,3,0,0,0,1,0,0,0,0,0],"split_type":[0,0,0,0,0,0,0,0,0,0,0,0,0,0,0,0,0,0,0,0,0,0,0],"sum_hessian":[2.8E1,2E0,2.6E1,1E0,1E0,6E0,2E1,5E0,1E0,2E0,1.8E1,1E0,4E0,1.7E1,1E0,2E0,2E0,1.4E1,3E0,4E0,1E1,1E0,2E0],"tree_param":{"num_deleted":"0","num_feature":"4","num_nodes":"23","size_leaf_vector":"1"}},{"base_weights":[9.02858E-3,7.596246E-2,1.2570895E-3,9.055662E-3,2.3387074E-3,-3.0533532E-2,1.1794101E-2,-1.6090801E-2,-5.8594956E-3,6.2492015E-3,3.168426E-3,3.7454368E-4,-2.0807136E-2,-3.0000886E-2,1.7157529E-2,-8.0046256E-4,-2.6673933E-3,1.9969523E-3,-4.3988872E-2,8.117801E-2,-7.682421E-3,-5.725026E-3,-1.6064525E-3,1.0299325E-3,1.0137114E-2,-2.1567214E-3,6.5582753E-3],"categories":[],"categories_nodes":[],"categories_segments":[],"categories_sizes":[],"default_left":[0,0,0,0,0,0,0,0,0,0,0,0,0,0,0,0,0,0,0,0,0,0,0,0,0,0,0],"id":46,"left_children":[1,3,5,-1,-1,7,9,11,-1,-1,13,-1,15,17,19,-1,-1,-1,21,23,25,-1,-1,-1,-1,-1,-1],"loss_changes":[1.4989613E-2,1.8402748E-4,9.404525E-3,0E0,0E0,1.8941462E-3,8.985377E-3,6.3925784E-4,0E0,0E0,9.330911E-3,0E0,1.6203383E-4,5.0723497E-3,2.288736E-2,0E0,0E0,0E0,9.318795E-4,4.680993E-3,1.2604426E-2,0E0,0E0,0E0,0E0,0E0,0E0],"parents":[2147483647,0,0,1,1,2,2,5,5,6,6,7,7,10,10,12,12,13,13,14,14,18,18,19,19,20,20],"right_children":[2,4,6,-1,-1,8,10,12,-1,-1,14,-1,16,18,20,-1,-1,-1,22,24,26,-1,-1,-1,-1,-1,-1],"split_conditions":[-1.3396502E0,-1.3827409E0,-7.938349E-1,9.055662E-3,2.3387074E-3,1.0346242E0,-3.6339146E-1,-1.1418037E0,-5.8594956E-3,6.2492015E-3,-5.592022E-1,3.7454368E-4,-6.1676717E-1,-1.4226762E0,1.6447123E-2,-8.0046256E-4,-2.6673933E-3,1.9969523E-3,-4.68792E-1,-2.0353892E-1,2.066367E0,-5.725026E-3,-1.6064525E-3,1.0299325E-3,1.0137114E-2,-2.1567214E-3,6.5582753E-3],"split_indices":[0,0,0,0,0,1,0,0,0,0,2,0,2,2,2,0,0,0,3,0,0,0,0,0,0,0,0],"split_type":[0,0,0,0,0,0,0,0,0,0,0,0,0,0,0,0,0,0,0,0,0,0,0,0,0,0,0],"sum_hessian":[2.8E1,2E0,2.6E1,1E0,1E0,6E0,2E1,5E0,1E0,2E0,1.8E1,1E0,4E0,5E0,1.3E1,2E0,2E0,1E0,4E0,3E0,1E1,2E0,2E0,1E0,2E0,9E0,1E0],"tree_param":{"num_deleted":"0","num_feature":"4","num_nodes":"27","size_leaf_vector":"1"}},{"base_weights":[8.778314E-3,7.216438E-2,1.4102956E-3,8.602882E-3,2.221775E-3,-2.8759152E-2,1.1399621E-2,-1.4997274E-2,-5.566521E-3,5.8325888E-3,3.3902307E-3,3.558159E-4,-1.9419992E-2,-2.7889887E-2,1.6553836E-2,-7.4709655E-4,-2.489569E-3,1.8971026E-3,-4.1056275E-2,7.585198E-2,-6.5140184E-3,-5.343358E-3,-1.4993548E-3,9.784341E-4,9.461308E-3,-1.9626152E-3,6.2303664E-3],"categories":[],"categories_nodes":[],"categories_segments":[],"categories_sizes":[],"default_left":[0,0,0,0,0,0,0,0,0,0,0,0,0,0,0,0,0,0,0,0,0,0,0,0,0,0,0],"id":47,"left_children":[1,3,5,-1,-1,7,9,11,-1,-1,13,-1,15,17,19,-1,-1,-1,21,23,25,-1,-1,-1,-1,-1,-1],"loss_changes":[1.3442088E-2,1.660781E-4,8.4649E-3,0E0,0E0,1.7571189E-3,7.6951277E-3,5.6149217E-4,0E0,0E0,8.285108E-3,0E0,1.4115125E-4,4.480813E-3,1.9644434E-2,0E0,0E0,0E0,8.117724E-4,4.0322803E-3,1.1148594E-2,0E0,0E0,0E0,0E0,0E0,0E0],"parents":[2147483647,0,0,1,1,2,2,5,5,6,6,7,7,10,10,12,12,13,13,14,14,18,18,19,19,20,20],"right_children":[2,4,6,-1,-1,8,10,12,-1,-1,14,-1,16,18,20,-1,-1,-1,22,24,26,-1,-1,-1,-1,-1,-1],"split_conditions":[-1.3396502E0,-1.3827409E0,-7.938349E-1,8.602882E-3,2.221775E-3,1.0346242E0,-3.6339146E-1,-1.1418037E0,-5.566521E-3,5.8325888E-3,-5.592022E-1,3.558159E-4,-6.1676717E-1,-1.4226762E0,1.6447123E-2,-7.4709655E-4,-2.489569E-3,1.8971026E-3,-4.68792E-1,-2.0353892E-1,2.066367E0,-5.343358E-3,-1.4993548E-3,9.784341E-4,9.461308E-3,-1.9626152E-3,6.2303664E-3],"split_indices":[0,0,0,0,0,1,0,0,0,0,2,0,2,2,2,0,0,0,3,0,0,0,0,0,0,0,0],"split_type":[0,0,0,0,0,0,0,0,0,0,0,0,0,0,0,0,0,0,0,0,0,0,0,0,0,0,0],"sum_hessian":[2.8E1,2E0,2.6E1,1E0,1E0,6E0,2E1,5E0,1E0,2E0,1.8E1,1E0,4E0,5E0,1.3E1,2E0,2E0,1E0,4E0,3E0,1E1,2E0,2E0,1E0,2E0,9E0,1E0],"tree_param":{"num_deleted":"0","num_feature":"4","num_nodes":"27","size_leaf_vector":"1"}},{"base_weights":[8.5202E-3,6.855615E-2,1.5339763E-3,8.172738E-3,2.110684E-3,-2.709001E-2,1.1002258E-2,-1.3977696E-2,-5.2881944E-3,5.4437476E-3,3.5649992E-3,3.380239E-4,-1.8125331E-2,-2.5925145E-2,1.594899E-2,-2.717811E-3,-9.06761E-4,1.8022478E-3,-3.8319163E-2,7.087666E-2,-5.4746163E-3,-4.9871337E-3,-1.3993939E-3,9.295106E-4,8.830547E-3,-1.7859776E-3,5.918849E-3],"categories":[],"categories_nodes":[],"categories_segments":[],"categories_sizes":[],"default_left":[0,0,0,0,0,0,0,0,0,0,0,0,0,0,0,0,0,0,0,0,0,0,0,0,0,0,0],"id":48,"left_children":[1,3,5,-1,-1,7,9,11,-1,-1,13,-1,15,17,19,-1,-1,-1,21,23,25,-1,-1,-1,-1,-1,-1],"loss_changes":[1.205815E-2,1.4989078E-4,7.61559E-3,0E0,0E0,1.6281758E-3,6.589749E-3,4.9323414E-4,0E0,0E0,7.352387E-3,0E0,1.6354711E-4,3.9587324E-3,1.6862504E-2,0E0,0E0,0E0,7.071495E-4,3.4723654E-3,9.866584E-3,0E0,0E0,0E0,0E0,0E0,0E0],"parents":[2147483647,0,0,1,1,2,2,5,5,6,6,7,7,10,10,12,12,13,13,14,14,18,18,19,19,20,20],"right_children":[2,4,6,-1,-1,8,10,12,-1,-1,14,-1,16,18,20,-1,-1,-1,22,24,26,-1,-1,-1,-1,-1,-1],"split_conditions":[-1.3396502E0,-1.3827409E0,-7.938349E-1,8.172738E-3,2.110684E-3,1.0346242E0,-3.6339146E-1,-1.1418037E0,-5.2881944E-3,5.4437476E-3,-5.592022E-1,3.380239E-4,-7.218621E-1,-1.4226762E0,1.6447123E-2,-2.717811E-3,-9.06761E-4,1.8022478E-3,-4.68792E-1,-2.0353892E-1,2.066367E0,-4.9871337E-3,-1.3993939E-3,9.295106E-4,8.830547E-3,-1.7859776E-3,5.918849E-3],"split_indices":[0,0,0,0,0,1,0,0,0,0,2,0,1,2,2,0,0,0,3,0,0,0,0,0,0,0,0],"split_type":[0,0,0,0,0,0,0,0,0,0,0,0,0,0,0,0,0,0,0,0,0,0,0,0,0,0,0],"sum_hessian":[2.8E1,2E0,2.6E1,1E0,1E0,6E0,2E1,5E0,1E0,2E0,1.8E1,1E0,4E0,5E0,1.3E1,1E0,3E0,1E0,4E0,3E0,1E1,2E0,2E0,1E0,2E0,9E0,1E0],"tree_param":{"num_deleted":"0","num_feature":"4","num_nodes":"27","size_leaf_vector":"1"}},{"base_weights":[8.235803E-3,6.512833E-2,1.6093818E-3,7.764101E-3,2.005148E-3,-2.560599E-2,1.0604535E-2,-1.3127704E-2,-5.023785E-3,5.0808312E-3,3.6984368E-3,-2.5819212E-3,-5.4255603E-3,-2.4096673E-2,1.5346453E-2,3.2112002E-4,-8.387551E-4,1.7121375E-3,-3.5764556E-2,6.6228986E-2,-4.5514186E-3,-4.654659E-3,-1.3061006E-3,8.830309E-4,8.241844E-3,-1.6252383E-3,5.6229117E-3],"categories":[],"categories_nodes":[],"categories_segments":[],"categories_sizes":[],"default_left":[0,0,0,0,0,0,0,0,0,0,0,0,0,0,0,0,0,0,0,0,0,0,0,0,0,0,0],"id":49,"left_children":[1,3,5,-1,-1,7,9,11,-1,-1,13,-1,15,17,19,-1,-1,-1,21,23,25,-1,-1,-1,-1,-1,-1],"loss_changes":[1.0828004E-2,1.3528019E-4,6.881313E-3,0E0,0E0,1.4920365E-3,5.6427647E-3,4.4642726E-4,0E0,0E0,6.521198E-3,0E0,1.5484412E-4,3.497903E-3,1.4475793E-2,0E0,0E0,0E0,6.1600655E-4,2.9892325E-3,8.736957E-3,0E0,0E0,0E0,0E0,0E0,0E0],"parents":[2147483647,0,0,1,1,2,2,5,5,6,6,7,7,10,10,12,12,13,13,14,14,18,18,19,19,20,20],"right_children":[2,4,6,-1,-1,8,10,12,-1,-1,14,-1,16,18,20,-1,-1,-1,22,24,26,-1,-1,-1,-1,-1,-1],"split_conditions":[-1.3396502E0,-1.3827409E0,-7.938349E-1,7.764101E-3,2.005148E-3,1.0346242E0,-3.6339146E-1,-7.218621E-1,-5.023785E-3,5.0808312E-3,-5.592022E-1,-2.5819212E-3,-1.1418037E0,-1.4226762E0,1.6447123E-2,3.2112002E-4,-8.387551E-4,1.7121375E-3,-4.68792E-1,-2.0353892E-1,2.066367E0,-4.654659E-3,-1.3061006E-3,8.830309E-4,8.241844E-3,-1.6252383E-3,5.6229117E-3],"split_indices":[0,0,0,0,0,1,0,1,0,0,2,0,0,2,2,0,0,0,3,0,0,0,0,0,0,0,0],"split_type":[0,0,0,0,0,0,0,0,0,0,0,0,0,0,0,0,0,0,0,0,0,0,0,0,0,0,0],"sum_hessian":[2.8E1,2E0,2.6E1,1E0,1E0,6E0,2E1,5E0,1E0,2E0,1.8E1,1E0,4E0,5E0,1.3E1,1E0,3E0,1E0,4E0,3E0,1E1,2E0,2E0,1E0,2E0,9E0,1E0],"tree_param":{"num_deleted":"0","num_feature":"4","num_nodes":"27","size_leaf_vector":"1"}},{"base_weights":[7.950159E-3,6.1871927E-2,1.6644011E-3,7.375896E-3,1.904893E-3,-2.4205877E-2,1.02085695E-2,-1.2331535E-2,-4.772596E-3,1.5874878E-2,-2.9080907E-2,-2.4528266E-3,-4.9865367E-3,6.9704093E-3,6.1041913E-3,-1.9600987E-4,-4.1661263E-3,3.0506254E-4,-7.7584834E-4,1.9498106E-2,-3.861913E-2,1.0765126E-3,6.651342E-3,-4.928573E-3,-3.3096672E-4],"categories":[],"categories_nodes":[],"categories_segments":[],"categories_sizes":[],"default_left":[0,0,0,0,0,0,0,0,0,0,0,0,0,0,0,0,0,0,0,0,0,0,0,0,0],"id":50,"left_children":[1,3,5,-1,-1,7,9,11,-1,13,15,-1,17,19,-1,-1,-1,-1,-1,21,23,-1,-1,-1,-1],"loss_changes":[9.726256E-3,1.2208614E-4,6.2151877E-3,0E0,0E0,1.366464E-3,5.1368084E-3,4.1519868E-4,0E0,7.216093E-3,9.41908E-4,0E0,1.3506114E-4,1.0462243E-2,0E0,0E0,0E0,0E0,0E0,5.0321477E-3,1.3434081E-3,0E0,0E0,0E0,0E0],"parents":[2147483647,0,0,1,1,2,2,5,5,6,6,7,7,9,9,10,10,12,12,13,13,19,19,20,20],"right_children":[2,4,6,-1,-1,8,10,12,-1,14,16,-1,18,20,-1,-1,-1,-1,-1,22,24,-1,-1,-1,-1],"split_conditions":[-1.3396502E0,-1.3827409E0,-7.938349E-1,7.375896E-3,1.904893E-3,1.0346242E0,1.6282653E0,-7.218621E-1,-4.772596E-3,1.4839478E0,6.149192E-2,-2.4528266E-3,-1.1418037E0,1.080378E0,6.1041913E-3,-1.9600987E-4,-4.1661263E-3,3.0506254E-4,-7.7584834E-4,1.055821E0,1.1860197E0,1.0765126E-3,6.651342E-3,-4.928573E-3,-3.3096672E-4],"split_indices":[0,0,0,0,0,1,2,1,0,0,0,0,0,0,0,0,0,0,0,0,0,0,0,0,0],"split_type":[0,0,0,0,0,0,0,0,0,0,0,0,0,0,0,0,0,0,0,0,0,0,0,0,0],"sum_hessian":[2.8E1,2E0,2.6E1,1E0,1E0,6E0,2E1,5E0,1E0,1.8E1,2E0,1E0,4E0,1.6E1,2E0,1E0,1E0,1E0,3E0,1.3E1,3E0,1.2E1,1E0,2E0,1E0],"tree_param":{"num_deleted":"0","num_feature":"4","num_nodes":"25","size_leaf_vector":"1"}},{"base_weights":[7.35498E-3,5.8778286E-2,1.3688726E-3,7.0070983E-3,1.8096447E-3,-2.288474E-2,9.388225E-3,-1.1585643E-2,-4.533966E-3,4.670342E-3,3.0022357E-3,-2.330184E-3,-4.5820354E-3,-2.2291342E-2,1.3627895E-2,2.8980972E-4,-7.176593E-4,1.5727103E-3,-3.3040453E-2,5.9686184E-2,-4.359473E-3,-4.215948E-3,-1.2907942E-3,7.850528E-4,7.434789E-3,-1.4868533E-3,5.0365566E-3],"categories":[],"categories_nodes":[],"categories_segments":[],"categories_sizes":[],"default_left":[0,0,0,0,0,0,0,0,0,0,0,0,0,0,0,0,0,0,0,0,0,0,0,0,0,0,0],"id":51,"left_children":[1,3,5,-1,-1,7,9,11,-1,-1,13,-1,15,17,19,-1,-1,-1,21,23,25,-1,-1,-1,-1,-1,-1],"loss_changes":[8.846479E-3,1.1018664E-4,5.466301E-3,0E0,0E0,1.2507525E-3,4.863968E-3,3.8556388E-4,0E0,0E0,5.4102424E-3,0E0,1.1783664E-4,2.9716173E-3,1.1858744E-2,0E0,0E0,0E0,3.7375232E-4,2.456328E-3,7.0750588E-3,0E0,0E0,0E0,0E0,0E0,0E0],"parents":[2147483647,0,0,1,1,2,2,5,5,6,6,7,7,10,10,12,12,13,13,14,14,18,18,19,19,20,20],"right_children":[2,4,6,-1,-1,8,10,12,-1,-1,14,-1,16,18,20,-1,-1,-1,22,24,26,-1,-1,-1,-1,-1,-1],"split_conditions":[-1.3396502E0,-1.3827409E0,-7.938349E-1,7.0070983E-3,1.8096447E-3,1.0346242E0,-3.6339146E-1,-7.218621E-1,-4.533966E-3,4.670342E-3,-5.592022E-1,-2.330184E-3,-1.1418037E0,-1.4226762E0,1.6447123E-2,2.8980972E-4,-7.176593E-4,1.5727103E-3,-4.68792E-1,-2.0353892E-1,2.066367E0,-4.215948E-3,-1.2907942E-3,7.850528E-4,7.434789E-3,-1.4868533E-3,5.0365566E-3],"split_indices":[0,0,0,0,0,1,0,1,0,0,2,0,0,2,2,0,0,0,3,0,0,0,0,0,0,0,0],"split_type":[0,0,0,0,0,0,0,0,0,0,0,0,0,0,0,0,0,0,0,0,0,0,0,0,0,0,0],"sum_hessian":[2.8E1,2E0,2.6E1,1E0,1E0,6E0,2E1,5E0,1E0,2E0,1.8E1,1E0,4E0,5E0,1.3E1,1E0,3E0,1E0,4E0,3E0,1E1,2E0,2E0,1E0,2E0,9E0,1E0],"tree_param":{"num_deleted":"0","num_feature":"4","num_nodes":"27","size_leaf_vector":"1"}},{"base_weights":[7.10329E-3,5.583938E-2,1.4250842E-3,6.656742E-3,1.7191649E-3,-2.1637985E-2,9.044913E-3,-1.0886759E-2,-4.3072673E-3,1.4202634E-2,-2.6635626E-2,-2.2136748E-3,-4.2094113E-3,6.0283877E-3,5.5789156E-3,-1.11866E-4,-3.883478E-3,2.7531982E-4,-6.638363E-4,1.7112954E-2,-3.427469E-2,9.280058E-4,5.9470297E-3,-4.4099083E-3,-2.4007559E-4],"categories":[],"categories_nodes":[],"categories_segments":[],"categories_sizes":[],"default_left":[0,0,0,0,0,0,0,0,0,0,0,0,0,0,0,0,0,0,0,0,0,0,0,0,0],"id":52,"left_children":[1,3,5,-1,-1,7,9,11,-1,13,15,-1,17,19,-1,-1,-1,-1,-1,21,23,-1,-1,-1,-1],"loss_changes":[7.945698E-3,9.9440105E-5,4.9406025E-3,0E0,0E0,1.1442224E-3,4.2429324E-3,3.5753788E-4,0E0,6.122512E-3,8.9041307E-4,0E0,1.0283594E-4,8.181157E-3,0E0,0E0,0E0,0E0,0E0,4.093041E-3,1.146697E-3,0E0,0E0,0E0,0E0],"parents":[2147483647,0,0,1,1,2,2,5,5,6,6,7,7,9,9,10,10,12,12,13,13,19,19,20,20],"right_children":[2,4,6,-1,-1,8,10,12,-1,14,16,-1,18,20,-1,-1,-1,-1,-1,22,24,-1,-1,-1,-1],"split_conditions":[-1.3396502E0,-1.3827409E0,-7.938349E-1,6.656742E-3,1.7191649E-3,1.0346242E0,1.6282653E0,-7.218621E-1,-4.3072673E-3,1.4839478E0,6.149192E-2,-2.2136748E-3,-1.1418037E0,1.080378E0,5.5789156E-3,-1.11866E-4,-3.883478E-3,2.7531982E-4,-6.638363E-4,1.055821E0,1.1860197E0,9.280058E-4,5.9470297E-3,-4.4099083E-3,-2.4007559E-4],"split_indices":[0,0,0,0,0,1,2,1,0,0,0,0,0,0,0,0,0,0,0,0,0,0,0,0,0],"split_type":[0,0,0,0,0,0,0,0,0,0,0,0,0,0,0,0,0,0,0,0,0,0,0,0,0],"sum_hessian":[2.8E1,2E0,2.6E1,1E0,1E0,6E0,2E1,5E0,1E0,1.8E1,2E0,1E0,4E0,1.6E1,2E0,1E0,1E0,1E0,3E0,1.3E1,3E0,1.2E1,1E0,2E0,1E0],"tree_param":{"num_deleted":"0","num_feature":"4","num_nodes":"25","size_leaf_vector":"1"}},{"base_weights":[6.5748515E-3,5.304742E-2,1.1677201E-3,6.32391E-3,1.633203E-3,-2.0461261E-2,8.321775E-3,-1.0231793E-2,-4.0919036E-3,4.2971214E-3,2.4128228E-3,-2.102992E-3,-3.8661838E-3,-2.060158E-2,1.2103794E-2,2.6155115E-4,-6.1404856E-4,1.4476717E-3,-3.0512583E-2,5.3821743E-2,-4.1667144E-3,-3.4624026E-3,-7.033408E-4,6.994009E-4,6.7099654E-3,-1.359494E-3,4.5057773E-3],"categories":[],"categories_nodes":[],"categories_segments":[],"categories_sizes":[],"default_left":[0,0,0,0,0,0,0,0,0,0,0,0,0,0,0,0,0,0,0,0,0,0,0,0,0,0,0],"id":53,"left_children":[1,3,5,-1,-1,7,9,11,-1,-1,13,-1,15,17,19,-1,-1,-1,21,23,25,-1,-1,-1,-1,-1,-1],"loss_changes":[7.2252704E-3,8.9750625E-5,4.3481165E-3,0E0,0E0,1.0462301E-3,4.195898E-3,3.3111434E-4,0E0,0E0,4.4869636E-3,0E0,8.976716E-5,2.5276886E-3,9.727071E-3,0E0,0E0,0E0,2.3914129E-4,2.0178026E-3,5.7176533E-3,0E0,0E0,0E0,0E0,0E0,0E0],"parents":[2147483647,0,0,1,1,2,2,5,5,6,6,7,7,10,10,12,12,13,13,14,14,18,18,19,19,20,20],"right_children":[2,4,6,-1,-1,8,10,12,-1,-1,14,-1,16,18,20,-1,-1,-1,22,24,26,-1,-1,-1,-1,-1,-1],"split_conditions":[-1.3396502E0,-1.3827409E0,-7.938349E-1,6.32391E-3,1.633203E-3,1.0346242E0,-3.6339146E-1,-7.218621E-1,-4.0919036E-3,4.2971214E-3,-5.592022E-1,-2.102992E-3,-1.1418037E0,-1.4226762E0,1.6447123E-2,2.6155115E-4,-6.1404856E-4,1.4476717E-3,6.519611E-1,-2.0353892E-1,2.066367E0,-3.4624026E-3,-7.033408E-4,6.994009E-4,6.7099654E-3,-1.359494E-3,4.5057773E-3],"split_indices":[0,0,0,0,0,1,0,1,0,0,2,0,0,2,2,0,0,0,1,0,0,0,0,0,0,0,0],"split_type":[0,0,0,0,0,0,0,0,0,0,0,0,0,0,0,0,0,0,0,0,0,0,0,0,0,0,0],"sum_hessian":[2.8E1,2E0,2.6E1,1E0,1E0,6E0,2E1,5E0,1E0,2E0,1.8E1,1E0,4E0,5E0,1.3E1,1E0,3E0,1E0,4E0,3E0,1E1,3E0,1E0,1E0,2E0,9E0,1E0],"tree_param":{"num_deleted":"0","num_feature":"4","num_nodes":"27","size_leaf_vector":"1"}},{"base_weights":[6.384416E-3,5.039509E-2,1.2578809E-3,6.0077193E-3,1.5515446E-3,-1.9350482E-2,8.0674365E-3,-9.617865E-3,-3.8873092E-3,4.0106536E-3,2.5840292E-3,-1.9978434E-3,-3.5500645E-3,-1.8994436E-2,1.1647369E-2,2.484739E-4,-5.67995E-4,1.3752878E-3,-2.8294474E-2,5.0291896E-2,-3.4640378E-3,-3.587994E-3,-1.1277517E-3,6.6443684E-4,6.262628E-3,-1.2371409E-3,4.280484E-3],"categories":[],"categories_nodes":[],"categories_segments":[],"categories_sizes":[],"default_left":[0,0,0,0,0,0,0,0,0,0,0,0,0,0,0,0,0,0,0,0,0,0,0,0,0,0,0],"id":54,"left_children":[1,3,5,-1,-1,7,9,11,-1,-1,13,-1,15,17,19,-1,-1,-1,21,23,25,-1,-1,-1,-1,-1,-1],"loss_changes":[6.479655E-3,8.099992E-5,3.945121E-3,0E0,0E0,9.561663E-4,3.5857153E-3,3.0627043E-4,0E0,0E0,3.9371215E-3,0E0,7.838039E-5,2.216438E-3,8.349838E-3,0E0,0E0,0E0,2.407711E-4,1.7373497E-3,5.063031E-3,0E0,0E0,0E0,0E0,0E0,0E0],"parents":[2147483647,0,0,1,1,2,2,5,5,6,6,7,7,10,10,12,12,13,13,14,14,18,18,19,19,20,20],"right_children":[2,4,6,-1,-1,8,10,12,-1,-1,14,-1,16,18,20,-1,-1,-1,22,24,26,-1,-1,-1,-1,-1,-1],"split_conditions":[-1.3396502E0,-1.3827409E0,-7.938349E-1,6.0077193E-3,1.5515446E-3,1.0346242E0,-3.6339146E-1,-7.218621E-1,-3.8873092E-3,4.0106536E-3,-5.592022E-1,-1.9978434E-3,-1.1418037E0,-1.4226762E0,1.6447123E-2,2.484739E-4,-5.67995E-4,1.3752878E-3,-4.68792E-1,-2.0353892E-1,2.066367E0,-3.587994E-3,-1.1277517E-3,6.6443684E-4,6.262628E-3,-1.2371409E-3,4.280484E-3],"split_indices":[0,0,0,0,0,1,0,1,0,0,2,0,0,2,2,0,0,0,3,0,0,0,0,0,0,0,0],"split_type":[0,0,0,0,0,0,0,0,0,0,0,0,0,0,0,0,0,0,0,0,0,0,0,0,0,0,0],"sum_hessian":[2.8E1,2E0,2.6E1,1E0,1E0,6E0,2E1,5E0,1E0,2E0,1.8E1,1E0,4E0,5E0,1.3E1,1E0,3E0,1E0,4E0,3E0,1E1,2E0,2E0,1E0,2E0,9E0,1E0],"tree_param":{"num_deleted":"0","num_feature":"4","num_nodes":"27","size_leaf_vector":"1"}},{"base_weights":[6.1596027E-3,4.7875326E-2,1.2963889E-3,5.7073357E-3,1.4739633E-3,-1.8301815E-2,7.7673905E-3,-9.042303E-3,-3.6929443E-3,1.23070255E-2,-2.3572763E-2,-1.8979519E-3,-3.2589554E-3,4.930226E-3,5.000655E-3,2.3555756E-5,-3.5594702E-3,2.3605228E-4,-5.2539556E-4,1.4257784E-2,-2.8948784E-2,7.660623E-4,5.0010444E-3,-3.7943465E-3,-9.82374E-5],"categories":[],"categories_nodes":[],"categories_segments":[],"categories_sizes":[],"default_left":[0,0,0,0,0,0,0,0,0,0,0,0,0,0,0,0,0,0,0,0,0,0,0,0,0],"id":55,"left_children":[1,3,5,-1,-1,7,9,11,-1,13,15,-1,17,19,-1,-1,-1,-1,-1,21,23,-1,-1,-1,-1],"loss_changes":[5.821237E-3,7.310882E-5,3.5662977E-3,0E0,0E0,8.7345205E-4,3.277841E-3,2.829688E-4,0E0,5.0373906E-3,8.670511E-4,0E0,6.845638E-5,5.7848888E-3,0E0,0E0,0E0,0E0,0E0,2.9190138E-3,9.6892053E-4,0E0,0E0,0E0,0E0],"parents":[2147483647,0,0,1,1,2,2,5,5,6,6,7,7,9,9,10,10,12,12,13,13,19,19,20,20],"right_children":[2,4,6,-1,-1,8,10,12,-1,14,16,-1,18,20,-1,-1,-1,-1,-1,22,24,-1,-1,-1,-1],"split_conditions":[-1.3396502E0,-1.3827409E0,-7.938349E-1,5.7073357E-3,1.4739633E-3,1.0346242E0,1.6282653E0,-7.218621E-1,-3.6929443E-3,1.4839478E0,6.149192E-2,-1.8979519E-3,-1.1418037E0,1.080378E0,5.000655E-3,2.3555756E-5,-3.5594702E-3,2.3605228E-4,-5.2539556E-4,1.055821E0,1.1860197E0,7.660623E-4,5.0010444E-3,-3.7943465E-3,-9.82374E-5],"split_indices":[0,0,0,0,0,1,2,1,0,0,0,0,0,0,0,0,0,0,0,0,0,0,0,0,0],"split_type":[0,0,0,0,0,0,0,0,0,0,0,0,0,0,0,0,0,0,0,0,0,0,0,0,0],"sum_hessian":[2.8E1,2E0,2.6E1,1E0,1E0,6E0,2E1,5E0,1E0,1.8E1,2E0,1E0,4E0,1.6E1,2E0,1E0,1E0,1E0,3E0,1.3E1,3E0,1.2E1,1E0,2E0,1E0],"tree_param":{"num_deleted":"0","num_feature":"4","num_nodes":"25","size_leaf_vector":"1"}},{"base_weights":[5.703669E-3,4.5481604E-2,1.0726518E-3,5.4219724E-3,1.400268E-3,-1.9257158E-2,6.5683885E-3,2.2425056E-4,-2.4005592E-2,1.0584349E-2,-2.2394141E-2,-4.6003066E-4,-3.5409015E-3,3.9815838E-3,4.667282E-3,2.2375583E-5,-3.3814968E-3,1.1985115E-2,-2.7027056E-2,6.0540653E-4,4.750991E-3,-3.5413902E-3,-9.332597E-5],"categories":[],"categories_nodes":[],"categories_segments":[],"categories_sizes":[],"default_left":[0,0,0,0,0,0,0,0,0,0,0,0,0,0,0,0,0,0,0,0,0,0,0],"id":56,"left_children":[1,3,5,-1,-1,7,9,-1,11,13,15,-1,-1,17,-1,-1,-1,19,21,-1,-1,-1,-1],"loss_changes":[5.2933707E-3,6.597862E-5,3.1431252E-3,0E0,0E0,6.6637085E-4,2.7958993E-3,0E0,9.4354106E-4,4.579842E-3,7.8251155E-4,0E0,0E0,4.7911378E-3,0E0,0E0,0E0,2.8728617E-3,8.423284E-4,0E0,0E0,0E0,0E0],"parents":[2147483647,0,0,1,1,2,2,5,5,6,6,8,8,9,9,10,10,13,13,17,17,18,18],"right_children":[2,4,6,-1,-1,8,10,-1,12,14,16,-1,-1,18,-1,-1,-1,20,22,-1,-1,-1,-1],"split_conditions":[-1.3396502E0,-1.3827409E0,-8.5453254E-1,5.4219724E-3,1.400268E-3,-1.1418037E0,1.6282653E0,2.2425056E-4,-5.016373E-1,1.4839478E0,6.149192E-2,-4.6003066E-4,-3.5409015E-3,1.080378E0,4.667282E-3,2.2375583E-5,-3.3814968E-3,1.055821E0,1.1860197E0,6.0540653E-4,4.750991E-3,-3.5413902E-3,-9.332597E-5],"split_indices":[0,0,0,0,0,0,2,0,2,0,0,0,0,0,0,0,0,0,0,0,0,0,0],"split_type":[0,0,0,0,0,0,0,0,0,0,0,0,0,0,0,0,0,0,0,0,0,0,0],"sum_hessian":[2.8E1,2E0,2.6E1,1E0,1E0,5E0,2.1E1,1E0,4E0,1.9E1,2E0,2E0,2E0,1.7E1,2E0,1E0,1E0,1.4E1,3E0,1.3E1,1E0,2E0,1E0],"tree_param":{"num_deleted":"0","num_feature":"4","num_nodes":"23","size_leaf_vector":"1"}},{"base_weights":[5.342795E-3,4.3207567E-2,9.377168E-4,5.1508783E-3,1.3302565E-3,-1.6287075E-2,6.634661E-3,-7.897417E-3,-3.3312514E-3,3.6518496E-2,1.5669685E-3,2.2043784E-4,-1.20114535E-2,1.1406422E-3,4.337132E-3,-1.7343452E-2,9.5595075E-3,2.1303892E-4,-1.7997324E-4,-1.6260118E-3,-5.1751937E-4,1.2379468E-3,-2.5763929E-2,4.3870807E-2,-3.786374E-3,-2.8803095E-3,-6.803632E-4,5.6264404E-4,5.4743453E-3,-1.1331135E-3,3.5830617E-3],"categories":[],"categories_nodes":[],"categories_segments":[],"categories_sizes":[],"default_left":[0,0,0,0,0,0,0,0,0,0,0,0,0,0,0,0,0,0,0,0,0,0,0,0,0,0,0,0,0,0,0],"id":57,"left_children":[1,3,5,-1,-1,7,9,11,-1,13,15,17,19,-1,-1,21,23,-1,-1,-1,-1,-1,25,27,29,-1,-1,-1,-1,-1,-1],"loss_changes":[4.7966046E-3,5.9544574E-5,2.7575337E-3,0E0,0E0,7.3678046E-4,3.12306E-3,2.0303068E-4,0E0,2.155453E-5,3.037498E-3,1.540941E-5,3.2030628E-5,0E0,0E0,1.8206309E-3,6.576915E-3,0E0,0E0,0E0,0E0,0E0,9.215181E-5,1.3552587E-3,3.6939094E-3,0E0,0E0,0E0,0E0,0E0,0E0],"parents":[2147483647,0,0,1,1,2,2,5,5,6,6,7,7,9,9,10,10,11,11,12,12,15,15,16,16,22,22,23,23,24,24],"right_children":[2,4,6,-1,-1,8,10,12,-1,14,16,18,20,-1,-1,22,24,-1,-1,-1,-1,-1,26,28,30,-1,-1,-1,-1,-1,-1],"split_conditions":[-1.3396502E0,-1.3827409E0,-7.938349E-1,5.1508783E-3,1.3302565E-3,1.0346242E0,-3.6339146E-1,-9.6388096E-1,-3.3312514E-3,-7.2618717E-1,-5.592022E-1,-1.1418037E0,-9.402506E-1,1.1406422E-3,4.337132E-3,-1.4226762E0,1.6447123E-2,2.1303892E-4,-1.7997324E-4,-1.6260118E-3,-5.1751937E-4,1.2379468E-3,6.519611E-1,-2.0353892E-1,2.066367E0,-2.8803095E-3,-6.803632E-4,5.6264404E-4,5.4743453E-3,-1.1331135E-3,3.5830617E-3],"split_indices":[0,0,0,0,0,1,0,0,0,0,2,0,0,0,0,2,2,0,0,0,0,0,1,0,0,0,0,0,0,0,0],"split_type":[0,0,0,0,0,0,0,0,0,0,0,0,0,0,0,0,0,0,0,0,0,0,0,0,0,0,0,0,0,0,0],"sum_hessian":[2.8E1,2E0,2.6E1,1E0,1E0,6E0,2E1,5E0,1E0,2E0,1.8E1,2E0,3E0,1E0,1E0,5E0,1.3E1,1E0,1E0,1E0,2E0,1E0,4E0,3E0,1E1,3E0,1E0,1E0,2E0,9E0,1E0],"tree_param":{"num_deleted":"0","num_feature":"4","num_nodes":"31","size_leaf_vector":"1"}},{"base_weights":[5.245814E-3,4.1047256E-2,1.0735868E-3,4.893339E-3,1.2637497E-3,-1.543576E-2,6.525579E-3,-7.459422E-3,-3.1646893E-3,3.4692604E-2,1.7347023E-3,-1.5447111E-3,-2.7724623E-3,1.0836124E-3,4.1202786E-3,-1.5996233E-2,9.209767E-3,2.0238757E-4,-4.4775158E-4,1.1760474E-3,-2.3899669E-2,4.0992975E-2,-3.185015E-3,-2.9579632E-3,-1.0253151E-3,5.3451065E-4,5.10939E-3,-1.0311345E-3,3.403914E-3],"categories":[],"categories_nodes":[],"categories_segments":[],"categories_sizes":[],"default_left":[0,0,0,0,0,0,0,0,0,0,0,0,0,0,0,0,0,0,0,0,0,0,0,0,0,0,0,0,0],"id":58,"left_children":[1,3,5,-1,-1,7,9,11,-1,13,15,-1,17,-1,-1,19,21,-1,-1,-1,23,25,27,-1,-1,-1,-1,-1,-1],"loss_changes":[4.287713E-3,5.3733587E-5,2.5309655E-3,0E0,0E0,6.6907087E-4,2.7736581E-3,1.8180133E-4,0E0,1.9451603E-5,2.6655796E-3,0E0,4.9952003E-5,0E0,0E0,1.5973115E-3,5.645806E-3,0E0,0E0,0E0,8.4274216E-5,1.1672033E-3,3.2689767E-3,0E0,0E0,0E0,0E0,0E0,0E0],"parents":[2147483647,0,0,1,1,2,2,5,5,6,6,7,7,9,9,10,10,12,12,15,15,16,16,20,20,21,21,22,22],"right_children":[2,4,6,-1,-1,8,10,12,-1,14,16,-1,18,-1,-1,20,22,-1,-1,-1,24,26,28,-1,-1,-1,-1,-1,-1],"split_conditions":[-1.3396502E0,-1.3827409E0,-7.938349E-1,4.893339E-3,1.2637497E-3,1.0346242E0,-3.6339146E-1,-7.218621E-1,-3.1646893E-3,-7.2618717E-1,-5.592022E-1,-1.5447111E-3,-1.1418037E0,1.0836124E-3,4.1202786E-3,-1.4226762E0,1.6447123E-2,2.0238757E-4,-4.4775158E-4,1.1760474E-3,-4.68792E-1,-2.0353892E-1,2.066367E0,-2.9579632E-3,-1.0253151E-3,5.3451065E-4,5.10939E-3,-1.0311345E-3,3.403914E-3],"split_indices":[0,0,0,0,0,1,0,1,0,0,2,0,0,0,0,2,2,0,0,0,3,0,0,0,0,0,0,0,0],"split_type":[0,0,0,0,0,0,0,0,0,0,0,0,0,0,0,0,0,0,0,0,0,0,0,0,0,0,0,0,0],"sum_hessian":[2.8E1,2E0,2.6E1,1E0,1E0,6E0,2E1,5E0,1E0,2E0,1.8E1,1E0,4E0,1E0,1E0,5E0,1.3E1,1E0,3E0,1E0,4E0,3E0,1E1,2E0,2E0,1E0,2E0,9E0,1E0],"tree_param":{"num_deleted":"0","num_feature":"4","num_nodes":"29","size_leaf_vector":"1"}},{"base_weights":[5.1217796E-3,3.8994867E-2,1.1684077E-3,4.648674E-3,1.2005568E-3,-1.4600013E-2,6.3689095E-3,-7.011831E-3,-3.0064553E-3,3.2957952E-2,1.8354341E-3,-1.4674753E-3,-2.5442957E-3,1.0294318E-3,3.914261E-3,-1.4864475E-2,8.861436E-3,1.922667E-4,-4.1417032E-4,1.1172474E-3,-2.2306358E-2,3.8304687E-2,-2.6507864E-3,-2.7607658E-3,-9.569605E-4,5.077839E-4,4.7687693E-3,-9.383303E-4,3.233719E-3],"categories":[],"categories_nodes":[],"categories_segments":[],"categories_sizes":[],"default_left":[0,0,0,0,0,0,0,0,0,0,0,0,0,0,0,0,0,0,0,0,0,0,0,0,0,0,0,0,0],"id":59,"left_children":[1,3,5,-1,-1,7,9,11,-1,13,15,-1,17,-1,-1,19,21,-1,-1,-1,23,25,27,-1,-1,-1,-1,